token,v1,v2,v3,v4,v5,v6,v7,v8,v9,v10,v11,v12,v13,v14,v15,v16,v17,v18,v19,v20,v21,v22,v23,v24,v25,v26,v27,v28,v29,v30,v31,v32,v33,v34,v35,v36,v37,v38,v39,v40,v41,v42,v43,v44,v45,v46,v47,v48,v49,v50
search_1,0.273406361540204,-0.03448732963589476,0.25584179689249714,0.784740297920113,-0.08776944003179986,-0.18850362027722706,0.9761838588681714,0.43110065666763314,-0.3538675426877409,0.3369353826563653,-0.32917701342896327,-0.15415641641088323,0.23684069368375749,-1.03870835416407,-0.7661213033320842,-0.2398656719268365,-0.4242095441677629,0.3468029645630317,-0.4785508493608925,-0.7815254671033947,0.6438729414982247,-0.19446917873981168,0.026053931402551498,-0.678258895625064,-0.24452228232958942,0.13817961975853543,-0.5741965995233607,0.33320241688856767,-0.3267850282831981,0.1261700417623235,-0.23828657133819783,0.8404233366128406,-0.11383786217507819,-0.48060822295363165,0.38892617751900943,-0.5390217755763019,0.1517555599597322,-0.987117953205575,-0.7487723962560557,-0.053054104534024704,0.32458179479100313,0.1713240200273325,-0.03641476678109987,-0.2751257256658432,-0.7219429025985955,-0.32139036622447065,-0.31870512910000703,0.5439336237040107,0.17763001662883068,-0.9958171074644293
search_2,0.2841358125404447,-0.013053697948768886,0.43214939336787395,0.866895133407503,-0.2548436241573771,-0.21085098246610257,0.8411099344745617,0.4350959596676753,-0.18323242433687126,0.6565531708584544,-0.17461979533691444,-0.11930831276706853,0.2163813121323373,-0.8915009971983191,-0.893985840720551,-0.2052468425711596,-0.5836980816209691,0.13344180562363606,-0.5025483925435158,-0.6979644367290135,0.9642902411281279,-0.29961466950244264,0.10239012138141326,-0.8736456802256936,-0.31938454884153467,0.16435635455166966,-0.5690687868016051,0.08007453137990536,-0.37184971588539933,-0.0778871000031708,-0.37388996928641216,0.9477849512126664,-0.0021914283785855818,-0.5940154992385319,0.625666864984127,-0.54702992275371,-0.09808246116338303,-0.961189630462945,-0.730271670926054,0.18367395141418416,0.2899812161544352,0.07421049644829535,-0.00732541329607455,-0.06397632837763224,-0.8592906358892913,-0.39337222778144915,-0.27781391659598936,0.4632281898520867,0.3483545688123404,-0.8410219065852714
search_3,0.1222686810721118,0.02265404411988528,0.5360598887516096,0.8647614542591273,-0.26901368395706937,-0.16549188576121543,0.916297522672358,0.3129504180145763,-0.1903552501528532,0.348743427135916,-0.3244018935640394,-0.23881741239130844,-0.20314559822389022,-1.059078886462328,-0.8877157313958324,-0.4059220828169713,-0.34317442977404833,0.014109528501573654,-0.49801648643030383,-0.6930777929390366,0.8769517133673885,-0.25647436536121176,0.1500804775594579,-0.7113507870047697,-0.3703422273673864,0.10167164228126012,-0.5555908191538044,0.12782732145695652,-0.2933391364604006,-0.1843782345828144,-0.2895015715895737,0.9923521597065735,0.15185306924556827,-0.652637014360635,0.6245757935172211,-0.8056306049377613,0.08925328799881938,-0.9210033412914301,-0.6359938376757119,0.03616066595250238,0.34842106496197767,0.03638404712910196,-0.11676061688854142,-0.06559163809254193,-0.7035594465872089,-0.4292130637234197,-0.14035939793656868,0.5592910651971188,0.2530953566681267,-0.8185571934890058
search_4,0.1654575754134091,-0.12515025460528928,0.39857362956267245,0.8225519547473592,-0.1191668467580828,-0.10533574014371208,0.9173728973325382,0.3245602256928714,-0.18002745485047225,0.2510607565495929,-0.25347696672895315,-0.12298719158640942,0.20352277068182006,-0.8752891587288351,-0.7319110355410835,-0.27904338045721044,-0.4382202630377155,0.12609699063829133,-0.42159540251176125,-0.7191661561044143,0.7425239809600488,-0.05337244769957646,-0.048057965979385345,-0.5031353655381824,-0.37279310041256153,-0.06595756642384018,-0.4596857013611446,0.26701527856912954,-0.237907363254187,-0.0830123239702104,-0.3020779833993899,0.8364136551058857,0.0008318434504056733,-0.5965716356291614,0.5087844293933697,-0.6251275631357249,0.02188207782312654,-1.0119736461051871,-0.6227998790216528,0.04205816265416429,0.28701125044106207,0.11005286174417647,-0.03332748408324798,-0.20124616533175738,-0.786364825745546,-0.3367171104615907,-0.37512781962962616,0.38781473567180236,0.0999647226589871,-0.9028647928525517
search_5,0.2794478330654168,0.07840347110936288,0.4096102313705482,0.74552107520767,-0.11897830815193687,-0.21732141493837115,0.7877550941544568,0.35485150068444055,-0.2024653369336671,0.18855692743775004,-0.1797741949821139,-0.07959098548487065,0.1101051209373313,-0.9164689501190048,-0.7934445170854051,-0.32126581180907,-0.4840063119861702,0.15838290637581642,-0.44424442790572227,-0.7834528290531924,0.7352754018866713,-0.06308832111872285,0.1788784631234661,-0.6164470104982077,-0.05687311651143567,-0.02127346143387191,-0.4882647250390836,0.20618320974667115,-0.08133905163763525,-0.22667670343215354,-0.3848254903327761,0.8661998277100666,-0.21913818479994765,-0.5814309666460262,0.3353591898962247,-0.5953824463378904,0.13860739508009365,-0.7922179780182992,-0.5690506406306102,0.04074025236832145,0.2793918228628694,0.13487605774563582,-0.18984746189618448,0.032594028790790985,-0.621316983111585,-0.4068396694078248,-0.4016328383889815,0.6639483505259991,0.16035516025896893,-0.7577384464840208
search_6,0.0889143106261796,-0.1290696528809696,0.32436863902216456,0.7662129875804868,-0.16208323450959236,-0.0547834852398404,0.6828443648154363,0.36947941607432505,-0.22270762979628617,0.32272390519885724,-0.16054735859734215,-0.3453290859689154,-0.032430281290545176,-0.828872440139048,-0.8292275150585572,-0.3559924182761417,-0.35130036261495956,0.1686911297269228,-0.3360823193542228,-0.6994000025266348,0.9388991769489757,0.06264593400105263,0.008867687496054568,-0.6152169980112928,-0.2076537673040766,0.1923244506081679,-0.6719891347691619,0.2564541551726799,-0.1944768962744437,-0.3217208235389498,-0.419179157381276,0.7222158744784588,-0.03368929581342274,-0.45710123889835397,0.5615081612611974,-0.6030123469435336,0.2672933520595069,-1.117845207761377,-0.8344312683847307,0.09287584804489989,0.40763983489163597,0.08241466578557594,-0.26456835119810795,-0.15946385174592323,-0.869707945234199,-0.29295484931435045,-0.1936595608702089,0.4345731344767223,0.12042245305056135,-0.9874414298702622
search_7,0.24208916677829914,0.0263820814645315,0.22527166441679186,0.8119195797557971,-0.17010244919891207,-0.1963557617008247,0.77890337175824,0.280193132334517,-0.2901021235021943,0.1514922325340975,-0.03523633311459218,-0.22933852158795556,0.0510085849837585,-0.9352421312554767,-0.8736917212255993,-0.30324072457380863,-0.44499889016286936,0.23287443730236745,-0.5070621525216582,-0.7637336747321137,0.7053192147456127,-0.34308026671682634,-0.11775500387589331,-0.575686666362276,-0.10769459091246295,0.03055769089929521,-0.5178410924055747,0.2189740246271896,0.0075687358861212806,-0.03388938375318071,-0.31364506526277514,0.8305850481944264,-0.16739324439472422,-0.5085091008912279,0.3356373815231642,-0.7526471959452785,0.03977450907812505,-1.0879898623013273,-0.49537886094195877,0.1865945936295068,0.36843602586604346,0.23367855448398783,-0.050087310429358434,-0.23668026792747077,-0.5869485874567479,-0.30603109982888843,-0.3340440009125394,0.509527245301097,0.08424731944575498,-1.0198000507778007
search_8,0.3409748312587805,0.12180951346142074,0.1839875116684321,0.8178118518730697,-0.1821409442738507,-0.1657810168510599,0.7303670153298089,0.2973182876084728,-0.22988503017299336,0.18818501015187855,-0.20466316382824723,-0.23788868773004213,0.09708633109637609,-1.0473964885330587,-0.9201360493133497,-0.20560464203791073,-0.45632384140477383,0.05936814181778183,-0.44407880721768284,-0.6310131383304668,0.5658838563486398,-0.05855213100527432,-0.03249827355062275,-0.6553142262474124,-0.348517277916843,-0.12502691521151887,-0.7382510324994677,0.19265750383897418,-0.2743470947872543,-0.23627853740707927,-0.23699406023696107,0.7599870860275729,-0.013356592233698618,-0.6499570844541959,0.3460888452713786,-0.6056819578538697,0.01839046097398246,-1.0182906163628704,-0.5634637435277712,0.04074143098224688,0.4528025012042194,-0.027286544870776572,-0.004843723402591982,-0.006394985728854358,-0.9864254451964426,-0.439611629744402,-0.17261217276183974,0.5082565745051586,0.2089237321213616,-0.9419185963529491
search_9,0.25701605525290633,-0.08469987412480028,0.44062247521632697,0.786957012534134,-0.08331642115414777,-0.158256175086837,0.7408457853464464,0.3404615457944923,-0.19529197872964638,0.22918157371095604,-0.20273136071658984,-0.025324796920584536,0.2080936061261863,-0.989242475545683,-0.7423375240401219,-0.3219513019226415,-0.7102280136849973,0.05631503520589652,-0.641091229863191,-0.7413031990717767,0.7346662223797322,0.05475558098426046,0.06645683972037819,-0.7342841459876148,-0.1892508041442424,-0.1656522360458555,-0.5519353329002948,0.2649355285615327,-0.44817796953738664,-0.03147147057594547,-0.26700366536525705,0.8846103008643887,0.05652957424166153,-0.30178617869751057,0.42945908155744406,-0.5855997663554775,0.05849570754835329,-1.064819498886367,-0.5810594427947907,0.012822235343675034,0.3763899137196445,0.037918395918473576,-0.009926158619481075,-0.11718563726594956,-0.6355070007579238,-0.41092374408282906,-0.2573068790092309,0.4306847415312271,0.12737981877661955,-0.8437900283768818
search_10,0.32405593817015155,-0.16134868300335486,0.4108048610609123,0.8970787140845078,-0.0757331970392979,0.07061110278121634,0.7122274878433384,0.2592518942453127,-0.41260921785790394,0.42088445294190063,-0.16627228077082534,-0.23842334387617395,0.1489779984149991,-1.0691890270587365,-0.6178837182948338,-0.2682216464229636,-0.4954760807067226,0.22970032868750612,-0.40591111458693413,-0.6837634482397326,0.6537769389162458,-0.06574131452966825,0.2219665519914653,-0.5778320884912306,-0.11287269959865162,0.004339727211814526,-0.6744572707370095,0.17527031716287117,-0.29474685373053305,-0.03642772304954353,-0.4700997690861804,1.0790941242005303,-0.022549402226865904,-0.5715435714726922,0.31006201852557774,-0.7759074921720881,0.18674885589856915,-0.9725032652210474,-0.7930891144233206,-0.031077259271799856,0.3356548200686924,0.25258629312392455,-0.08378327633048074,-0.300866143106455,-0.7638353015923082,-0.38719446117212136,-0.5000080497740509,0.5231316264576766,0.1487156917633629,-0.8118994412000251
search_11,0.4332526860001509,0.04352435236918342,0.2969553999948632,0.6508623373298457,0.14025929296331807,-0.11114663507314144,0.7909993369449904,0.38130485586545404,-0.21492871689069057,0.2568439806005881,-0.28907504709425474,-0.28755077090916764,0.11770580876141722,-1.0109825994422754,-0.9337434945242328,-0.2705007418512967,-0.5319132819092974,0.3075229651559058,-0.7191090185999067,-0.5970011654753995,0.8574329037105399,-0.3202271734840828,-0.0005046570640729608,-0.7495181797063075,-0.41294253173437345,-0.0223203739041545,-0.6865543732577343,0.3630760535151982,-0.20675150564465639,-0.01869136539722252,-0.22868609971037496,0.8132339151327459,-0.05920063899694433,-0.47991800835515835,0.28905967516239994,-0.5391219819682723,0.0803992576865642,-1.0173171426948475,-0.5929970276288661,0.14285694908316574,0.3331366734157972,0.20161712093141004,-0.16593047395411,-0.08895828710021803,-0.6799508693868753,-0.39087674812875334,-0.19770608325568195,0.40344975547092754,0.2642118467049208,-0.9000102913256659
search_12,0.1960847744537124,0.03576877199809661,0.25340989999607033,0.6206687985676567,-0.27273960471405834,-0.05646748334002631,0.6615634725040674,0.5591967827748909,-0.4429301337558483,0.4409256586219862,-0.2106070996859693,-0.24253618797216767,0.06648922710212207,-0.9167265108936918,-0.8662223864990012,-0.1708135764188342,-0.4949927953010079,0.1721538424438247,-0.490373258981991,-0.7118464130397525,0.7636045613499829,-0.2839049895089304,-0.10105443986660938,-0.6380476837044569,-0.25510481844979715,0.037062961219665125,-0.5736533954046121,0.2226071797090031,-0.3542953129903387,-0.22367734743686968,-0.2812687806049303,0.8283018144929657,0.03407666320248023,-0.6991138249017342,0.5141880197841588,-0.5631620767442068,0.13003477093376525,-0.8815659635453363,-0.49754558000295757,0.1998676244363748,0.18514586686454068,-0.042273556078584906,-0.12030599896368815,-0.147942742773561,-0.6874950931368013,-0.43249648551270087,-0.2116427090321859,0.4530228198741256,0.11065736448503588,-1.0221861873661893
search_13,0.1560337518945259,-0.2043006111472257,0.22625694375261296,0.8668791078647966,-0.2120165762448623,0.1461697280091488,0.8389381978417847,0.40220097694594176,-0.32057297098559745,0.34131100973388145,-0.2892726290300085,-0.22066389532059227,0.37698958960989654,-0.9662461123013639,-0.7475315836279488,-0.3514614071330751,-0.5099144092169081,0.33420372986118796,-0.5167087435393822,-0.5249069948679529,0.8035995780063245,-0.1691348278326946,0.09700487624951401,-0.6151186481440554,-0.2100103660408717,-0.10156117713411261,-0.6482105062936383,0.1630971456176855,-0.30776268786940714,-0.08377966514157059,-0.2830832060213731,0.7926046563834588,0.03127117273162936,-0.46779688994956786,0.4672515008446985,-0.5023437524300489,0.1878240129572681,-0.9339170540170441,-0.67110959559508,-0.06766547541703738,0.4121951119109638,0.10645290931129636,-0.030666257474582917,-0.2782267053766754,-0.84736664922454,-0.25460681886406394,-0.23427490086555924,0.5967111828467203,0.17464098239727682,-0.8785444637317924
search_14,0.34218545710321613,-0.12073662340732971,0.3334563467444446,0.7152873993335084,-0.16052631010489954,-0.1479856908214542,0.811819784917067,0.33584250241010666,-0.10916158041012397,0.18181929157103194,-0.250396010822367,-0.27683798261254594,0.26567892421839034,-0.9369846446777415,-0.7592744623096529,-0.42969980192418356,-0.47971053358028604,0.24608674585998064,-0.44578363883306305,-0.5996038131611106,0.6810955394507399,0.02804659377529016,0.26365391470588695,-0.7486579491506943,-0.3167416144026685,0.20079974256670313,-0.4175395741380802,0.13556300645750916,-0.3423380266689882,-0.1740253357826891,-0.43529835721812615,0.8342738976060491,-0.10716268904417375,-0.6056352209883631,0.4078039673129164,-0.587000351731859,0.2594818467837854,-1.0796704660137668,-0.5656607846015569,0.07703173351201087,0.3642869190324619,0.15316608981164564,-0.17009634335035012,-0.11231087317623933,-0.7226157743624081,-0.3106769777965394,-0.20140252108911194,0.7740911271005473,0.10803514635909911,-0.9346197731815488
search_15,0.1860430238631399,-0.1246798625016178,0.26010555631969445,0.8804165813147679,0.02497373743731751,-0.1741431078495379,0.7063708504432729,0.4308589202150948,-0.2899594973955732,0.33457320356853343,-0.21141654432110116,-0.38443928828485163,0.2757316559160232,-0.7770523550193468,-0.923737785304955,-0.31991392061408475,-0.4778290210947214,0.19056934529633945,-0.3881576104933224,-0.5051313967910107,0.715129661711372,-0.1927178746971132,-0.1041678204574908,-0.7854670971009203,-0.27550405954997104,0.23491708120671181,-0.6272579186147685,0.21022780433672583,-0.3019616345666777,-0.02700754755182999,-0.04816006352733626,0.8730522149624368,-0.05569255662078918,-0.424439376771043,0.47946160501422563,-0.4257510924119078,0.1628246160349741,-1.0157642710185937,-0.6050275413799844,0.20930097599285252,0.4512815081174416,0.136411543705715,0.04884332776479513,-0.03362228875007711,-0.6010450960799609,-0.29505111543839,-0.24703119351157918,0.5432324817527902,0.2924600414350664,-0.9632136447800905
database_1,0.6989093155846876,0.26812497855910566,0.1644134821405024,0.9336833306811638,1.034609668049966,0.9702837143737142,-0.055594375709311195,0.42001916867711475,0.7301801338158894,1.2040980358917257,0.22963505758205496,0.4290855444344853,-0.028229118631938575,0.05964201593601204,0.8967333579584038,1.2060221668624453,0.524784590181487,1.020427361261648,0.6361746510687641,0.19684912198726862,0.7880609777401842,1.1663667532918787,0.49538394785971185,1.2123097464130856,-0.6903678891523879,0.7586325617092344,0.48763134939192676,0.38821751227351836,0.7024327911911853,-0.5003594834077452,0.3346441034119242,0.8666719926999322,1.0941456323291336,0.020984295201168096,0.13975464355873943,0.19891605577247062,0.8555777771379658,0.7352111995597775,0.2594999694936005,0.7002258534830053,0.4205083348069308,1.0715682280944592,0.2139935708571899,0.3262513403231776,0.48860962303868777,-0.33876595069867455,0.4955076214398142,0.5613368291018203,0.49799812668568066,0.40704037824469574
database_2,0.6379183789117645,0.34266439944327143,0.036385057427976236,0.9502146048277599,1.0072846434087186,1.0773696427169122,0.11466377302645114,0.39106913398977106,0.7226084437250023,1.032543419562911,0.32468515706410944,0.5400857646813346,-0.03351537003286709,-0.027202936281484166,0.8972893417683764,1.3221317358303586,0.3963557090039061,1.1818604922370937,0.6768022174593826,0.03436261248563305,0.6935082442452859,1.2009131174854966,0.5661513353438966,1.2170594299767639,-0.8544908953663501,0.7219971790930588,0.49829290219417793,0.10810839210417059,0.3874901059191789,-0.41774299168601664,0.4687440719463273,0.7211020419343697,1.142249408057837,0.23609375524897833,0.09539294464434936,0.13328500928847745,1.1080408890277522,0.7521117838874094,0.2130234807335142,0.7593223004561311,0.5693770554687755,0.7801490084240156,0.12425571480926412,0.267970501901336,0.2037839224444296,-0.2598675033546548,0.8278287912172403,0.6946119222166457,0.44543882934295076,0.4399647114480424
database_3,0.8019775283559978,0.3999222280831186,0.16750203683903805,0.7411444666498765,1.0853220926093345,1.0049885981002742,0.16991056039145397,0.40891099224258964,0.7705869872337154,0.9342490424051229,0.39215228764078763,0.4269304721373314,0.15435860025951245,-0.16702209384929217,1.079859291513624,1.197911092631676,0.39885313884838824,0.9533778655405799,0.648783281704385,0.21985671733762951,0.732981351557757,1.2116482828391266,0.47965152121892596,1.4965488637681894,-0.637118235034801,0.9545836191550152,0.5473238819359056,0.3624994574388924,0.6072321855407928,-0.596063713820287,0.36442640233890955,0.5116978783681143,1.278869334631286,0.3055844848334504,0.04743455232346879,0.406520154536735,0.8351244925508029,0.5179380668088602,0.2575650799724778,0.8613435468178936,0.7169315438198072,0.9384340689795506,0.2568415364044534,0.33231807975104516,0.2866831934398392,-0.14339148031739204,0.71329242637363,0.4728884203915197,0.65021076329382,0.5207155687271717
database_4,0.5994857145464445,0.3470392131355826,0.21094201847529453,0.8319055210028246,0.9604692458634334,0.8984777227642942,0.07783583128953621,0.46266671400032916,0.7199917311612252,0.950711130352569,0.3375827521421895,0.12231624960508386,0.061709083034196255,-0.2720746899181454,0.8700188170567857,1.066153024822797,0.3345267916377425,1.117849127683864,0.6340478923926278,0.21209051087050945,0.6760057448662886,1.3167223659552967,0.48976916955104977,1.154022605488146,-0.7102458701001582,0.8615755938714807,0.3878653442531105,0.307684808670475,0.6959563673311823,-0.4087622830890971,0.35529884264045813,0.6436305153240304,1.20678351724902,0.4485396892192604,0.13394674377656152,0.2921256429268387,1.0607294042542212,0.6882544707324936,0.20921568353441028,0.7369987316481803,0.5413786487326139,0.9806002716154605,0.22173640742502182,0.34136351528184583,0.37720993115547913,-0.23982913207691753,0.6559236575638971,0.4307075676367339,0.5941894957914786,0.4173552809022258
database_5,0.7618429956833628,0.017833321972472782,0.3703764703250934,0.7918791816049165,1.1263180429217272,0.8616494668455462,0.1416686288949377,0.24005225575702704,0.6032548196322014,1.1791756989478581,0.24134464100102038,0.42891379898606374,0.033839286065861326,-0.048535123243074935,0.9213048017114567,1.214616114532034,0.7043364977336606,0.9960045692426536,0.7009279171953138,0.28250556229819906,0.7912503960500054,1.3877213137890225,0.5459600026479428,1.1680213366339547,-0.6465293988147626,0.7963167128857431,0.5737870806429889,0.27506873976513047,0.539466553608452,-0.46090821627009837,0.42229977762627136,0.7207483611794017,1.4003181492766228,0.2862183210145743,0.07133753502434133,0.34553019503656746,1.076648107743501,0.5416147733161429,0.2948599051014664,0.8267509907877679,0.518782424338021,1.1218931765976066,0.13396789435807113,0.34872657204827007,0.2866387410055342,-0.23019956930791252,0.5384326298427679,0.4865225478305152,0.6620072346437277,0.29801029848059374
database_6,0.5629027497517668,0.09211984843147025,0.09764282507807041,0.6735291650796841,1.1797012772616124,1.0666217684923627,0.011576203870908353,0.5706373926088235,0.7638082644009414,0.9552894252103173,0.01047230958999773,0.6362647689271657,-0.19212473367937372,-0.2626431867360246,1.008519954398063,1.4220952549193386,0.6024222210608849,1.058157360951248,0.7402934466903456,0.26278167857546864,0.7565906617328835,1.2971374256299222,0.4925070908402118,1.2760625151170508,-0.8852690109315398,0.8828837445009345,0.37422785269954706,0.34066236208759126,0.44702127755265947,-0.6041433890220235,0.4081534711965919,0.8177565143903331,1.3307786829709896,0.08381483050085858,-0.003209615103627564,0.3431985970065533,0.8594523194972061,0.6419122398301398,0.29012510801893576,0.6597992710703146,0.5590763252886162,0.8509199457746242,0.08883668866620245,0.36814712011536954,0.14464655008075425,-0.18771000027001938,0.6460963586396199,0.6857766315316595,0.5249481417276965,0.519120476309811
database_7,0.6745644349621882,0.26451830567931645,0.173768750150249,0.8601679473240726,1.020385768280546,0.9696992286784876,0.010192069608005186,0.27910372031929787,0.5253711885218125,1.1627302378798736,0.13602655753822654,0.3378799918885007,-0.12500821355993386,-0.008610874345891265,0.8767679433678962,1.3028942215527848,0.3966458767854462,1.0296658651683923,0.5972833071978413,0.3919550354747767,0.5619379608512557,1.3000003542556873,0.545464668538234,1.323701737652153,-0.828401317932643,0.8979691822142694,0.5479046813169965,0.3357961246042174,0.6422682999472422,-0.27273215714131127,0.3344148775804607,0.5415759877979655,1.2301188175356326,0.49883582462860815,0.015385741756433105,0.4130331587521385,1.1254711402586812,0.6090167306590428,0.29201820603500817,0.919473378869532,0.5106260005752715,0.9639644592562084,0.09080536166645944,0.2346932536318292,0.23901816892732047,-0.35415150074228496,0.6514684853582107,0.5535303129840805,0.5259353195003053,0.2271168686920638
database_8,0.6951300079188432,0.3908117559527342,-0.03783456441012492,0.8432438014051911,1.1382666604953047,0.8446759576889787,0.24764847707245108,0.3872957130109972,0.5951305301259411,0.982195655795409,0.3162455723295273,0.4147710508093326,0.0007081122416228158,-0.19017067134827204,0.9231989936007068,1.0367485645949133,0.45287233307496305,0.9113756847995331,0.6072650182648404,0.3010494402184816,0.7898288148136339,1.3299320953237024,0.37285570397776635,1.2506809829375227,-0.6885627820469539,0.9251229435516024,0.775456488117255,0.3898281087065035,0.5650852999167544,-0.5246961037206965,0.40351814655947227,0.6633093021178188,1.3097578900396172,0.33653512254263473,0.01715425250261124,0.11599818285195393,0.7740805215407074,0.7151746875210966,0.12478323749909323,0.5413446572614298,0.5873966351271167,1.2336224470097237,0.1483663619073345,0.42001800414628004,0.3121288592886777,-0.24164643938517355,0.7399677868310649,0.6015001816710795,0.5292959597284207,0.4148762139320279
database_9,0.5952329393330926,0.406663094745494,0.14404302417747977,0.7302636284711495,1.0691507456050158,0.8757932613789956,0.08320935412559355,0.34448191240997234,0.7742212722849398,1.035242386849175,0.25791018520284065,0.48894714158812014,0.08585326789871725,-0.042322281405149174,0.907298173181437,1.0469363910503955,0.3574835729022958,0.9712439785105453,0.6198667923078887,0.15874299239889325,0.6863627952439177,1.3219875586686576,0.47503710263911514,1.3309719922896233,-0.8034251105638601,0.7134045955522248,0.4495899947372102,0.33608756919490473,0.42491091398364045,-0.4337915843008259,0.5432391393156137,0.8004324709256049,1.2176027352777374,0.38993750454817155,0.11061994427361735,0.2154128810959278,0.8963607924969431,0.6341285861810294,0.19630221626235772,0.7736753387942269,0.5645961727790066,0.9846270972817861,0.1926672700359588,0.45523355417975,0.3989013369780536,-0.38024727091104965,0.3926680250420926,0.7239596272138721,0.3658688584796883,0.3602298931231582
database_10,0.5450306820914615,0.12726081603383976,0.21568527266749943,0.8817536604506986,0.9578487211753035,0.7065358303436082,0.02576679356343245,0.3845742126146473,0.5177405588243691,1.0061085555390952,0.25888189616005547,0.46509966162820027,-0.04120945016159878,-0.19541020612849097,1.0259200613635482,1.1622670569827143,0.4612644852588399,0.9084396530386925,0.636489787404666,0.08895985129474776,0.6634031967618647,1.440189131247219,0.34489686615188864,1.1209656881193288,-0.6627555192955114,0.8900188844724254,0.47661626025309395,0.4544867935066739,0.4853188342940648,-0.31118348594575274,0.45795664321517093,0.629765144941303,1.4546778436973085,0.18029339856284246,0.1699627357543369,0.27905073624838095,1.087875187790917,0.8205266745025275,0.23832031302305726,0.6812919295220597,0.5945359889679319,0.916550958291234,0.35031217781398616,0.3498224598093896,0.2674137683027103,-0.21328944347956844,0.5133475095793184,0.5333662322388795,0.622598119115673,0.317017005415287
database_11,0.5573508864292035,0.36112413504457036,0.28010941531332034,0.8777334754869406,1.1151045298285571,0.8899605507011532,-0.06178982828550364,0.49552717726994133,0.6333637318175683,0.9626892619156748,0.3932322952622609,0.46279351260815743,-0.007578709794853339,0.11839692244977301,0.8419110881590847,1.270904027093535,0.46969625169954154,1.0286256768323379,0.8336648551650702,0.22822369832640024,0.7345274106591703,1.3762690169639649,0.44559170749073573,1.1984008611731023,-0.9143534714469755,0.7143155932500118,0.7491442471131178,0.24017548819489795,0.523755025909174,-0.5214657872893385,0.4209047258621541,0.7601300070098029,1.3249943712067327,0.18255714700628245,0.07904102717476505,0.2773794732565617,0.9328319462326824,0.8251101124318415,0.2842173932803057,0.8301214951616599,0.6148269015407615,1.1016698810149772,0.1670756089316945,0.2064857319055312,0.3439147186091853,-0.2968931634452422,0.5951984703573123,0.689164037965454,0.626385035464594,0.3848335909860327
database_12,0.6929252859572939,0.47768035425536554,0.18561431779587748,1.0660064558384734,1.0720507258111298,0.7895637836425176,0.15572540049913397,0.38350965056267045,0.7946069911100565,1.0550906986881754,0.24656728267897768,0.28474068803915487,-0.07406981273161663,-0.18315535746126543,0.8482105662166267,1.2369778547274723,0.6309853896449737,1.0412336019283102,0.5612297063202986,0.22190038951945193,0.8003609514187722,1.2080399928010463,0.46868526377773245,1.2837906473799228,-0.8883623833530963,0.9757792955719978,0.5314287192583075,0.3924495691577691,0.4571311704875412,-0.5375302873327874,0.4624021918640212,0.6412729705466965,1.4116434074940987,0.20090127230171606,0.11822167112859479,0.3423805613950407,0.8158644855577339,0.4882946736317646,0.0825542666594711,0.8828921268993963,0.4933529600847756,1.24014242383327,0.09254869319558495,0.35462405702081956,0.45815691869070874,-0.03114818525014698,0.8542104961959278,0.7513642591492589,0.6049629809023767,0.44195912823254485
database_13,0.7398780923140613,0.2523402881589884,0.07971911150478991,0.8055006986793387,0.9984812989954827,0.9203172546253717,0.15002998313435228,0.44092433293144373,0.6744724043309667,1.1355255716667059,0.14624396966400455,0.3878045657401196,-0.1248497190632946,-0.2847569737476414,0.8979948426128291,1.165945263447083,0.6153399135340463,1.0648476174014898,0.5783993300908965,0.3628493793308567,0.8028011723067423,1.3272280535798462,0.45943857056004106,1.186377904234655,-0.8470932296519775,1.0198261141580305,0.7319821647125465,0.5048206775942852,0.49699544608912377,-0.6057462006293475,0.4042526807723644,0.5017123491995881,1.2712637937892364,0.22610463223330943,0.04914954836658197,0.08965117148105217,1.0090610695080087,0.6111054708636511,0.11812821454545179,0.46940749522851316,0.5457872841689566,1.1615476549334192,0.3150993745161108,0.2904593010424887,0.24372471739774312,-0.1848800484585569,0.5482215946134589,0.6607068260718912,0.5791647561596995,0.5053997557008573
database_14,0.6520265770494023,0.28709148477414514,0.07374074117136453,0.7231501090164478,0.9928518720578228,1.0023766102397171,0.17174970101200568,0.2650759170063582,0.8149005725977341,0.9606602034569227,0.25827615164251144,0.3324493437533091,-0.2955915130303083,-0.009698772404230421,0.9799473009063423,1.14998725857359,0.4706940109323203,1.053360370716422,0.5245634268351628,0.12453485496280839,0.7601242707163898,1.1435893409160596,0.5114427736616871,1.1466636474446625,-0.7632295538015196,0.9073871039578636,0.38201035252853466,0.46697026021278343,0.4724212305879463,-0.5748097010018844,0.41022097580433836,0.7934200206987447,1.1373648404729184,0.24703287584797348,0.1386348485864635,0.31843203893404615,0.9753452143787595,0.62767277092151,0.15236087605160864,0.7652481048613156,0.44132487347545957,0.692187446916984,0.1926294334770906,0.4265624108097354,0.06765267987973733,-0.33273054453705303,0.7099755646328079,0.8362771830611145,0.5046360990887713,0.3099061391895131
database_15,0.6437523405869134,0.4449465017066602,0.0969425819345671,0.7259189437554086,0.9672254090297723,0.8703071987322281,0.09265826998816029,0.5078616579213487,0.6979396430133848,0.9625372133485508,0.23123175418580064,0.2508514307984257,0.03514349071170181,-0.10588703174161561,0.8882149198380365,1.4974307710698975,0.49387023004640174,0.9265873439364937,0.6381822529032627,0.29228469361711334,0.6920248438079835,1.125190485401248,0.5740098739025445,1.2155074193531037,-0.6225427744231176,1.018956058759077,0.4987913445532105,0.4785979609405776,0.5526659393204916,-0.4085070897882245,0.43863733781069153,0.5939206202567859,1.174592039139012,0.34386097262129245,0.062275665342752105,0.20875663188353205,0.8621888009161017,0.7067354613891883,0.4413723900407951,0.6498804251312508,0.5509607203412961,1.1255445508079875,0.1410093139367523,0.3814061063260893,0.1977065706192332,-0.18892676434529443,0.6293457120318332,0.7291006356579309,0.6212953334777056,0.6416627975142879
bigdata_1,-1.1497220537038495,-0.6777430297244629,-0.6519188281056512,-0.9364552638918783,-0.5467944714868355,-0.32751471260663373,0.45993904823222653,-0.2809513400232846,-0.47187906116658196,-0.4232351017701791,-1.3276741009155342,-0.5250637904237163,-0.6820703849303462,0.6708388575331998,-0.46648102773445027,-0.35151313506308196,-0.6172861080821127,-1.1348165109325878,0.1554734099079656,-0.069360126836475,-0.128377236395446,-0.9913761685788383,0.1622213405636674,-1.2931665498459908,-0.04503388415292067,0.5629957659838553,-0.8735523104827945,-0.6310172596091409,-0.35034322764138337,-0.7948998583299045,-1.2349587064994054,-0.4681380732360779,-1.1215220429360653,-0.23076785651024895,-1.0776160962328818,0.3937351413549261,-0.9380883758979579,-0.6409147925155539,-0.0649126041605509,-1.1413226555873852,-0.3276006525504078,0.1060810114789616,-1.2166118875348895,-0.5422810387585227,-0.35742064492114706,0.08480433579448365,-1.2185084878995984,-1.2280028035946233,-0.18763843222565968,-0.3335494851894472
bigdata_2,-1.1726223610978512,-0.6614039483679132,-0.6078851114072078,-0.7901686504151871,-0.5396609901401533,-0.322100337054585,0.5103503207255382,-0.22272290009455897,-0.3844881792768752,-0.6346758883501478,-1.3486775407208234,-0.5252950541199682,-0.6871518496308904,0.8163632239576852,-0.6497133009859535,-0.35827965706360987,-0.4841578517957202,-1.0652890508318595,0.14235658897141423,-0.16758212071359727,-0.05317344666086827,-0.9806483951557612,0.2752782035567999,-1.139388782994835,-0.3001153233043244,0.7038260245224925,-1.0488645070767488,-0.7023430849732715,-0.41344558611604537,-0.5679194593785875,-1.2976783137702517,-0.500650192208806,-1.0330938174518256,-0.29352176296583676,-0.8797179269226967,0.11333614166511091,-0.996994888082754,-0.7678110502607571,0.001789367882192458,-0.944370820958785,-0.39671495455168243,0.13668920482221297,-1.2967364009692957,-0.2914952404730289,-0.4627939162948457,-0.08525166583786631,-1.020955592460798,-1.1101188895481537,-0.22007105553167683,-0.2514030541266929
bigdata_3,-1.478008600325131,-0.6425351294295888,-0.7367648265761272,-1.0842019242964551,-0.5295225958805065,-0.160608717076435,0.42934809914249594,-0.31742363886378666,-0.2099969788397533,-0.4057315125246789,-1.2953891547123813,-0.43904418861741923,-0.46234153113932747,0.5714244750529263,-0.6207867312035561,-0.43355098836481293,-0.3002616131028403,-1.1019276000529998,0.08373188793595884,-0.06888494605256618,-0.10012378184123118,-0.7851886233542942,0.1391322192946044,-1.181464785872416,-0.2808185116696697,0.4632255617829187,-1.0564450716558726,-0.7868525445062272,-0.4931045399079054,-0.8209799250454852,-1.4159634619002497,-0.4740290698598558,-1.1816238942661528,-0.18719818831344898,-0.9514681418234513,0.12921205256227666,-0.9225475538731049,-0.7362463986618961,-0.06132394027324708,-0.981387113614663,-0.5737872796625098,0.16507398505595577,-1.3197548968372779,-0.34054906308880134,-0.34873894005201933,-0.18428549728522675,-1.1503807490057028,-1.239830892222487,-0.13142850333169134,-0.3493764985162128
bigdata_4,-1.0175663024499064,-0.7163887427641416,-0.7421979349544311,-1.0525100738720923,-0.760956823458599,-0.4563881658932798,0.46980561570641344,-0.36183859126108714,-0.5293438748418312,-0.4477191264754721,-1.5076917128178646,-0.4985776365260535,-0.3086628322039443,0.8213049878291963,-0.6230335471811445,-0.43834555137472253,-0.7325374249855521,-1.1562543507340082,0.050298383374740824,-0.22275143637173134,-0.11760972318770702,-0.9470085391014926,0.17891155728724173,-1.2659257894784863,-0.1897059859031921,0.6394218778619302,-1.1043080703096286,-0.642055626826759,-0.4600331306846056,-0.7498528647636149,-1.2045102732074107,-0.44239689947063615,-0.9358381934717279,-0.23449136816222682,-1.0209558545809454,0.3111175550293799,-1.0059992669001847,-0.6501747875251855,-0.0965643903796112,-1.1362438439442315,-0.3991237838418284,-0.034613527408549866,-1.3586141080547098,-0.39839858061973643,-0.3540729636760482,-0.21185607820394065,-0.9919045713525709,-1.2468457913635882,-0.1420834971388775,-0.3087882271962385
bigdata_5,-1.2723081020095874,-0.5327915721217283,-0.7907209414390328,-0.8092232172498093,-0.4805846240287067,-0.3650365925003953,0.5823394806116979,-0.4377157450439758,-0.34235544171063215,-0.5111907740059616,-1.4728164817965754,-0.43217611040863024,-0.3905360229742655,0.556767858918825,-0.46574645810274595,-0.5154755276367612,-0.4141012644184559,-0.9716685051270078,-0.03768523576400956,-0.1651149124520714,-0.2150544933270701,-0.976185830426243,0.17059372704947545,-1.1229594781692065,-0.07554057848790402,0.7347961939839849,-1.0514849652231744,-0.8040710521758387,-0.6185181366782745,-0.8323248337077185,-1.1788465522233205,-0.30416023024216315,-1.1545867440510447,-0.3224502105976987,-0.9623526928127943,0.3029833183907304,-0.9725869981602833,-0.6186246536564288,-0.14062532602225675,-1.1168773853048055,-0.33164160789756536,0.15421360412230783,-1.3473802063332707,-0.418644051126431,-0.37889489879632177,-0.1460896670995576,-1.1443549617057511,-1.0003635894916665,-0.1829372723974273,-0.38105569518632304
bigdata_6,-1.1379899305741334,-0.7437046103582805,-0.5540447945047207,-0.864174415391,-0.5913730702334274,-0.253202879011703,0.28600533539841516,-0.525387840475061,-0.4906173052785234,-0.5229286484067129,-1.2861341077010113,-0.2901269231053452,-0.4060797848854111,0.7817055037370888,-0.7762862558058351,-0.40349370880659596,-0.5961342600434455,-1.1464237786348777,0.054597025399031315,-0.17124254142632567,-0.3024140075160553,-0.879902701785616,0.09412285289406894,-1.1770008449850256,0.0008368138751325138,0.503289353746347,-1.2482969148399772,-0.8117492869893971,-0.3400783539563223,-0.5559030816360403,-1.398286674978308,-0.41604859027333413,-1.0776829025410577,-0.2737986201128228,-0.6952777824151981,0.12467016966925437,-0.8662526800186613,-0.6142614409262945,0.015337241178769598,-1.105633842869888,-0.3554649787475251,0.11440652039903493,-1.276828923156103,-0.44200229828358895,-0.30790141389018316,-0.14604959771570822,-1.0807653160488224,-1.163154587910636,-0.12642419211433437,-0.35664703574225565
bigdata_7,-1.3849886178458952,-0.5841305113112804,-0.7619304883496467,-0.9665152684756915,-0.6402089852373538,-0.16053076227564902,0.22952552920739555,-0.09893624021808112,-0.2656191237320127,-0.5148990664701676,-1.4648750077111492,-0.48470153023884277,-0.4177726521915529,0.7961426148376488,-0.5406200357902163,-0.3402682607076689,-0.5370897268833542,-1.0994663471751174,0.05192057922224217,-0.010656473969906474,-0.04512835425039036,-1.2487325908637974,0.2669872331210257,-1.181451911924263,-0.2084423287444546,0.5563759675961006,-0.8828568905667428,-0.6883962185891002,-0.5274620842385404,-0.7110325983456461,-1.372497388987195,-0.6036803290758794,-1.093823579322049,-0.17696443744413337,-0.864399612579293,0.326275744518499,-0.8191170674833189,-0.609412929391342,-0.15738955083746037,-1.0722399037495833,-0.3062290801751671,0.2290005101225715,-1.1848502801331495,-0.3368526860137415,-0.3349137821216299,-0.0020735402797020797,-1.121127481363947,-1.24841577166491,-0.25533591358592755,-0.4259979278640519
bigdata_8,-1.2752031985226453,-0.7247745284542313,-0.7505992503633809,-0.9319347875747135,-0.7700043225283831,-0.2766452008554369,0.4432134981414875,-0.4944199566908996,-0.30530023779537735,-0.4434659441204278,-1.6201415940864181,-0.5895294155812298,-0.5467991300082166,0.6376307461317566,-0.5132329981973863,-0.3686089427104741,-0.5438073689836826,-1.2847252552504416,0.13495321027843293,-0.24795932314196018,-0.09849076345184372,-0.9269560336015503,0.33746301505191467,-1.3318075713080517,-0.5085226686819474,0.6136127673803587,-0.8152170444142588,-0.6592542295074423,-0.42920837592871686,-0.8009014456213044,-1.1946194558693353,-0.5630731325674332,-0.9835160799274305,-0.21265676876574655,-0.8536911263670136,0.5509332063998775,-0.8523850494502418,-0.7119271206735878,-0.09579882253436457,-1.2923397487058894,-0.4557413458068411,0.11264313332990364,-1.356150457074073,-0.3924475835304757,-0.4523005961140083,0.0030145026211023246,-1.1184546489472214,-1.1611583386559996,-0.271818688842843,-0.3359885949975091
bigdata_9,-1.1251755445584437,-0.7970356829537696,-0.7371689071709104,-0.931511237488476,-0.715229948180326,-0.37990035756488055,0.39547086325079917,-0.3252721755128078,-0.3449686717384253,-0.5178639667463292,-1.3742958114327235,-0.5269941165645481,-0.43083841003659784,0.7212988809493934,-0.5696442474505984,-0.407502194594352,-0.7612376006802646,-1.0977669350283965,0.2136862208675043,-0.03141194343245368,-0.007944278019359471,-0.8310806552167477,0.21026291456419333,-1.1811939606555808,-0.26833664264329987,0.5636205273022843,-0.93369104758823,-0.6627604210845044,-0.46411894502427936,-0.7967567535432408,-1.2752789196474066,-0.4055978377040748,-1.1755373384764067,-0.492821879996133,-1.01476580206606,0.15289595991735383,-0.9424406659328497,-0.675808789984585,-0.13856623221746647,-0.970185404769903,-0.3535955562377033,0.18361881310229689,-1.2415209028762735,-0.5215663825119248,-0.26614742413376136,-0.11666499276489081,-1.0514272937149198,-1.2674140298461536,-0.39440509379315764,-0.2697186975809041
bigdata_10,-1.1700444184154555,-0.8005278168184305,-0.7583235663908542,-0.7885951561693325,-0.6995840451197374,-0.1337072762671344,0.3530308771404782,-0.3488719010232422,-0.4040866522135163,-0.4769042147748493,-1.51379700786094,-0.5295362283318379,-0.46579297748991466,0.6314023106644958,-0.5220980478485486,-0.4005476854803523,-0.5402158763866235,-1.1837739562706173,-0.18482195862202078,-0.14313625991662984,0.13677751568281504,-0.876233298607567,0.19947111749461013,-1.227214614316967,-0.20432486381866022,0.6499397244225102,-1.1133494440962286,-0.6717166953344988,-0.378636185912055,-0.6799192544873062,-1.2314841416520936,-0.46375684682758733,-0.9638657332663705,-0.20402237130827144,-0.995116188211004,0.21760702521907963,-0.88144101664192,-0.5061287429533191,-0.2171520988805552,-1.2621846847922216,-0.3697939485742836,0.15866014732681585,-1.286407450843573,-0.3832877509429979,-0.39237882833926874,0.03989777974886341,-1.2785657532866925,-1.2430780090201627,-0.24935469320645592,-0.5158265444988237
bigdata_11,-1.2252708114684143,-0.5441756448098777,-0.6692686094337886,-0.8780685440389411,-0.7066593323502626,-0.3596107123966785,0.4055733125728714,-0.44448260325970396,-0.24306042513824097,-0.48145385181057115,-1.5705314033432238,-0.48860645988140794,-0.4200627201798083,0.8456359600947697,-0.43812641373372385,-0.45073574801598065,-0.5984416359736555,-1.2100968047012277,0.04800942134681213,-0.07739764621197948,-0.005750574819566354,-0.9622888297616218,0.1694124031425652,-1.1857497321712664,-0.2900857432628672,0.8041816850744666,-1.15603426527715,-0.7646748069118136,-0.24781369553321547,-0.7510578426020998,-1.2943356190332158,-0.501463054878029,-1.0491910250392933,-0.12591893721475622,-1.1808983082498523,0.4283105726384023,-1.0340223614131332,-0.6876959910262793,-0.1361658333450313,-1.0565768312399055,-0.5460824678863101,0.19978864374940833,-1.1013106549519285,-0.544000471193129,-0.3510879861147487,-0.17528678189100572,-1.0758866348197373,-1.158313528800563,-0.30317790809598216,-0.30272043489629963
bigdata_12,-1.0272505600465327,-0.7294130405554093,-0.5993814640485666,-1.0304659303979258,-0.6762864935148054,-0.25073394380469305,0.5915045534588617,-0.37714975870551454,-0.4025306076909333,-0.5372938173407482,-1.5844263810464925,-0.45280540508907174,-0.38165158879714584,0.686412022959335,-0.6431846971665114,-0.3226385058679889,-0.5610278584566812,-1.0909522802723484,0.2813835861741618,-0.1487360537312126,-0.14031804168059878,-1.0194479079608854,0.27581635261804327,-1.2190479487179506,-0.2715087569320075,0.7273582161322905,-0.8533078621139804,-0.8431912213752565,-0.636828312592241,-0.6509864580744075,-1.3437946981090667,-0.38665595268070946,-1.2281622386342361,-0.17394405085247833,-1.0808293100449797,0.3480436144154222,-0.8901993393844752,-0.7564247000425024,-0.1339450226078432,-1.0468003125213075,-0.37568058738641186,0.21201267518846248,-1.1060975588290651,-0.564107231904953,-0.20833734537892584,-0.09865297035902353,-1.2083537602713539,-1.2932596691160372,-0.2579412562692545,-0.2593426521909611
bigdata_13,-1.2204402830629606,-0.5592071683579447,-0.8164748272685407,-0.902347529395415,-0.7058822002743165,-0.261611383330234,0.5317816896149952,-0.45478727295218585,-0.6316461903013313,-0.5173281432034341,-1.4157117524761698,-0.4728274622284387,-0.3463066758472714,0.6245156882777382,-0.5281588718455162,-0.22997557758539627,-0.6952146432532733,-1.0523738362178685,0.020993424156743122,-0.1321857509667775,-0.0697163781246429,-1.0034165838087248,0.1338263475518884,-1.197510289647338,-0.3152960469861451,0.4866453000164707,-0.9273308342696938,-0.8980282683172516,-0.38354306736525823,-0.7054786977727046,-1.447912388412126,-0.5334749778305519,-0.9117409165583152,-0.3613203377963774,-1.0061525433478404,0.3211732918339594,-0.813287595239859,-0.6861846467072874,-0.1529924107843293,-0.9731951720471267,-0.2123800663181774,0.2514571822193936,-1.2952098030241113,-0.4885096428979405,-0.45310304353144476,-0.05683715358476907,-1.0766355333501727,-1.0200684472474952,-0.17398420793793726,-0.5018156935593888
bigdata_14,-1.1024906092529152,-0.8101287241141208,-0.7097543854586199,-0.8761186139856401,-0.38107610685460813,0.01301728400780533,0.5037652565188834,-0.4310307554561193,-0.3177742397905628,-0.4484574152957,-1.4914523702052398,-0.3337358021333762,-0.4468778191103466,0.7813953651517825,-0.529588057185115,-0.3070676677717482,-0.4334618348056604,-1.1460643374644583,0.015581231862907219,-0.23404890695378244,-0.0605339034164539,-0.876800077046158,0.2471744420832382,-1.0334762880613866,-0.2071310549827695,0.6621019784642406,-1.1044382501792755,-0.8218588350488261,-0.3806205416996017,-0.6668276159837853,-1.3047284102994845,-0.472878437782793,-1.1829392315311333,-0.2989067047630702,-0.8706738007649231,0.33248770411942635,-0.8415600740299977,-0.6560533893847419,-0.09253507545234747,-1.1814642721643223,-0.31638719067768184,0.19566867158015303,-1.2545397324813339,-0.46028655500060595,-0.5853928948629127,0.000626707064024748,-1.1663591010398815,-1.2465058829464501,-0.1696813260001518,-0.39070892737532
bigdata_15,-1.1016917326205449,-0.6486220664250097,-0.603000325943337,-1.037734205730863,-0.4594484572943645,-0.2718495184693452,0.4061652366806448,-0.39837224684985545,-0.5488483279284498,-0.4963576767350165,-1.5623227584677277,-0.6485239663089619,-0.6221208136512759,0.8428898937416356,-0.65910682175984,-0.19585355784154385,-0.5709360311578514,-1.255074814569061,-0.04024103673735564,-0.0004523216559190607,-0.12007384427214329,-1.0095224570464296,0.21739897805332836,-1.150747257779386,-0.09483157150961877,0.7400777358942819,-1.0312450271442526,-0.9157536334095898,-0.491520833568507,-0.725709776399811,-1.3717076081541275,-0.5614336040864907,-0.9967730687080639,-0.26806901983945436,-0.9564324175757429,0.19911766903876277,-0.9146667175886953,-0.7534540725296683,-0.0042215502026864415,-1.0119072247446022,-0.5708888189217447,0.060620291121973036,-1.4533945427896218,-0.4726854641745377,-0.3784023998548243,-0.2540530860811978,-1.2106613367515724,-1.260624043750288,-0.21830248425165677,-0.34457322967978193
token_1,-0.7217375533372533,0.17682087213939798,-0.5466800845872654,-0.2716551103260533,1.673452090298537,1.340461051790348,-1.2995812369275976,0.8297324178791745,0.8113965544915921,-1.1482632887526183,0.8187776437548606,1.5379319184125528,-1.1225448062444139,-0.9175028210142636,1.0176614668435024,0.271495310825648,0.5514762752395233,0.3405892164004968,0.39069592092814415,-1.326472128311083,1.0473177066214483,1.1695899924277735,-0.22939074406802776,-0.04347694981386243,-1.5311075025557221,0.5142547560178349,0.5720574417141441,-0.062191016999311004,1.1243533598705027,-0.3340772309799405,0.5646059258936003,-1.0196643386921156,-0.02355215087423812,-0.17435425790283585,0.22530792204094158,-0.3695269288333586,-0.1314725956716678,0.8260471714415063,-0.43676423723821745,-1.6065771007386793,1.7495839042054206,1.3814540786904865,-1.2922626951056186,0.6897078052451944,-0.5029747705513431,0.26348721533105957,0.2942241290134937,-0.234407800316322,-0.7837656655863965,-0.6905410523162594
token_2,-0.9161919154812425,-0.8318222082304447,-0.06717829004935526,-0.7157599891107518,0.6820520657126199,1.4872461553359273,-0.580053241370043,0.23940450053537707,0.49968511030293383,0.4720022709192744,0.07595526791608741,0.7426824183597224,0.4822489526806572,-1.2376624223272978,0.8691560643892732,0.8872908372667421,-0.7632861041785816,0.03793783544760203,0.6833289928110694,-0.20931381957936157,1.0729780477660118,2.3638724946193608,-0.7859860326349823,-1.3810446031537749,0.30381859560487573,0.7215625051261435,-0.23086637384476896,1.4532606633210343,-1.3386057997232488,0.6929186230316111,-0.6058608207588934,1.7193779062072967,1.9925153531681183,-0.7666565877833479,-0.5495571359085801,0.8595878869798019,-0.3871306497895146,-0.04541121793223822,0.02538842054241018,-1.9196731561976563,-0.01383774609423725,-0.6897277740641738,-0.493122822399772,1.4436320034688142,-1.2565068942792563,0.8132051867479773,-0.2789629303318085,-0.2797601684958344,0.7903718960517113,0.34005129456889044
token_3,0.570612997219531,0.9681846605328611,-0.33130838318332273,-0.6122367345077503,-1.085150526557798,-0.8254105299789551,2.9490944253087252,1.2446795807367868,-1.3510743662080213,-1.3224579567435701,0.4818660617184915,0.547264797377967,0.5488838353173644,-0.25495579355369785,-0.12545426000290022,0.3278795241593574,0.08589300629333041,-2.219300372747535,-0.22979963057519381,-0.8514064342603136,0.17521141890851205,2.98525900260341,0.3674816654743044,-0.3135296861723979,0.9218015019772522,0.4826878872092127,0.4200944904518413,0.606850593215671,2.0565435648295414,-1.1308884353259157,0.47363207681145447,-0.9263811299815384,0.5555126463422483,-0.9186865114860944,-0.4173668136050844,-0.2950899142379063,0.975816719344709,0.9184544439424138,-1.2457173764463845,0.054934110999848726,-0.7095798547491726,-1.2585049106753345,-0.21701705042437042,-0.3084827884558197,2.4267164863455224,0.43295982536069616,-1.3776175007542373,-0.5647740041709423,1.0213832954293984,2.088442772869925
token_4,-1.5859833122379583,-1.879924385139045,1.8709651753717822,0.38961417737090387,-0.8682927318763665,0.5346290861224353,-2.6357477390168778,0.003375506597160999,0.32782117284308526,0.9242701395378298,-1.0138959522925377,0.08568716140335904,-0.9254246260595873,0.2553837556743171,-0.8953463223630241,-0.4081008391602206,-0.9958153947902291,0.651136241823657,0.8584511166566653,-0.2346205699574138,0.03823799496002834,-1.4485914146335441,-0.29967664800678706,-0.05020461704174478,2.620793091029975,-1.1119670257741636,1.4641772387524374,0.996858773465808,0.2806364044901364,1.7586204841951334,0.3721054726068629,0.3891591956679287,-0.053120653017545344,1.2235688824186275,1.0964692338108837,-0.6256772874962124,-1.3192471945987674,-0.20298063739565708,-0.8000385643976464,-0.0635245746153551,1.2374381346841392,-0.45730165508679,-0.04282338131157488,0.058022734808395225,0.8484308822052846,-2.246889333984605,-0.6067002947652967,0.21128369227947272,1.2000789564268612,-0.49190244750620515
token_5,-1.876552706041874,0.6197114459661363,-0.6353623888256293,-1.1896666590903613,-0.6243453897132241,-0.18452535765584954,-0.6047446645382127,-2.205566057099069,0.8970661968871322,1.2748750412787222,0.6515219913395057,-1.1376856704248166,-0.20149153394751798,-0.006521315229458062,0.5987943895619102,0.6683404887180808,-0.7341737987784958,0.08199555641356042,0.4572804046152411,1.4558223221467665,0.7045065398247231,0.7890566873755189,0.08382662792936094,1.4104591452035038,0.4097627959594974,-0.8610879101735704,1.4033699701251907,0.6979032725390276,-0.4430440211284823,-0.47949296739924335,0.2965755451407618,0.4631847952675847,0.19729226563120644,0.3113086734428849,1.6999573745763805,1.0715431522348857,0.19063559126502433,0.9413105807674833,-1.0325239035275395,0.39792704994680894,1.80930634973311,-0.21804589539237385,-0.8476339286190848,-0.6520888885930607,-1.0896330373423884,-0.7847619081277034,-0.370508098590029,-1.405567019178642,0.015618333949603047,0.9022771737866472
token_6,-0.9077561801469204,1.5192839236417688,0.5107920885275947,1.0305805856240573,-0.6578345538521371,0.8545252270666157,-1.091933900395313,0.8902475008365087,0.17183933979353122,0.5532512199847837,-1.1755946056248516,-0.8950698422766047,0.5972282182533848,-0.9483480042242007,0.46320629209912306,-1.3671378064602457,0.8481742126666681,-1.232523314768509,0.5522999376795232,0.6256309336460009,-0.6967718184295749,0.5820265670847269,0.26044226333355597,-0.5388418561927383,-1.008554684076208,-1.962625691672579,0.3496500472996937,-1.5648027713620551,0.0953441994413082,-0.2634482160822491,0.6791427754381955,-0.3020454994898642,-0.3294477863470914,0.7318707042882956,0.3350580290841175,0.3161559571827783,0.46926758980852623,-1.5355721232071058,0.756788679986982,0.6124687940136023,-1.0166831285764972,-0.2440804736742013,-0.039307287627631186,-0.1344967844017327,0.33385996656853467,1.4313667818311835,1.0817667276728287,-1.3122191934314063,0.6220699903060487,1.3289333195354096
token_7,0.38680852068920263,1.090980425185967,2.012270445700765,1.0237095461069814,0.24930859564172886,1.0450884740847535,0.14488783309689118,0.02390304328495547,-0.35141423571373254,1.5634133588321082,-0.8184286659420014,1.532367724678116,0.49986412374037137,-1.3993061748019415,0.3676492929914216,-2.100026507651624,0.6255080168310357,0.885231482988991,-0.5923559556520536,0.12354769595558233,1.9541574337502863,-0.5057467042619367,-1.0589075870566005,1.4816634024625988,1.9625871905307948,0.0036956718478473255,1.0114630354083562,1.341475915530881,-0.742484232538384,-0.4853058353678683,1.230874513154735,1.6850142787085094,0.5628808601743548,-0.8798143535020543,1.9870611116994412,-0.5309708978119645,-0.33513778117145177,0.34233783448962146,1.5541604207147741,0.8539759765522237,0.41486550036191044,0.4632885301181062,0.04351466864346608,0.5581395145185063,-2.529560077694303,-0.29660745906979835,0.241321934916781,-1.151014083619507,0.38632331781156,-0.20447122098612153
token_8,1.75547569831549,1.5730197252148563,-0.46580556911816284,-0.15083771156669531,-0.0739475656083926,-0.4516594761596227,0.19502498402812674,-0.7582820688875902,-1.1306153349375263,0.6227112239002686,0.6295295842218108,-0.8043157596599924,0.8953554307625996,-0.6315777291653314,0.2531652380379812,0.820344012612456,-0.03361256470371301,0.4547409121411344,-0.5164296438875717,-0.19646658342809717,-0.20585943088034037,-0.7465783465402389,-0.1767741631157821,-1.5486182988637467,-0.4911537471421047,-0.28487549336967083,-0.2561797524953801,-0.24149744587077882,-0.061764199860128925,0.4794415180860639,0.8745170741325226,-0.6497652268482671,-1.2032008553891445,-1.042044412243103,-0.48720292119492714,-0.3519213178165091,-0.7699960661974573,-1.2961166642498945,-0.4561208274741882,0.18142662011397137,0.5950294658355647,-0.5574230531083212,-0.41299782214343406,-0.9266983088473107,-0.03143917037477642,-0.8484286341908146,0.5731278132412001,-1.7858664919341112,-0.3596296724524624,0.3011073391917421
token_9,0.18383451632250436,2.6930336639804966,0.34980002456790754,-1.0040545968420103,-0.09546424708907303,-1.7762463334664518,-0.08059974929676088,-0.8330560570007587,0.9153902755601617,-0.5495402745955349,-0.11676591579524663,-0.6355578414044034,1.7388513518533313,-0.3212427661179117,1.8325570434792018,0.8141517621182666,0.48206672733538614,0.3687331473175197,0.39379729821625153,-1.92767257934561,-0.2788833941507565,0.8451579711843216,-0.04889718347410554,-1.405189846803575,-0.05240445057746945,1.7041055162554912,1.2468917155347194,-0.062004009366031745,0.9514492770580866,-0.36650702036805183,-1.703871586826719,-0.9244659881295544,1.5628887685081978,-0.2739930818293042,-0.24338397937501807,-0.29983819627488056,1.904136589573007,1.6259589153620633,2.218780233448134,-0.1590452104000513,0.29562448874709507,-1.5166425494207911,1.4769344261182744,-1.167779551267935,0.2167755637626291,-1.097302527632844,-0.5888668267386961,-0.8372624310497003,-0.6078752606758179,-0.5391227031489786
token_10,-0.5482687949250771,0.8333339117803071,-1.10486279306252,0.22054142701386686,1.2179591523055584,-0.513196364513396,-0.7179188907476018,-0.23052462518025083,1.1797252083607102,0.1941076309533577,-0.5312142946075985,0.48387665118803974,-1.1022921498364233,0.681359510442948,0.4086073077017676,-0.3078084711388841,-0.838585798447231,-0.8866809222834573,0.5348173363459102,1.2289805024890619,-0.6373077470287948,0.45838670355148425,-2.0870270186020687,-0.5846177306571996,-0.031058932870901952,-0.9096834169818336,-0.936506374789596,-0.6677795564688862,0.29219272832637316,-0.1873290184063747,-2.238231233324972,-2.120700152635066,-0.6068651778571754,0.45768658605355206,-2.7475048427252347,-0.4997301761516306,-0.5262478565174211,1.3883377782084478,-0.38502181171286365,0.38298898474092846,0.14125714008746323,-2.1305664798072006,0.7682072166317373,0.21539650545628794,0.5082686396745896,3.9262377064363267,-2.0841129394985884,1.7246966497611085,-0.28744751940035557,0.2873289044030093
token_11,-0.04551224530124217,-0.4242363333980435,-0.5698329282387588,0.32950873557300914,-1.5171736966716791,0.7505791675217656,-0.41619440488525394,-1.1300693390403578,-0.4500128579958137,1.2571492168625729,-0.5353350870162231,0.35845361820962024,-0.7309562757154733,0.7579218499236196,0.6855077387902041,1.8486088332964115,-0.1755639454992155,0.6686548047579066,0.09806753953894455,1.2958717818630143,-0.7188323876087304,0.7450053128772811,-0.19469729611668168,-0.06418817710849775,0.09175248444837286,0.2522403964266774,-0.11622904312195817,0.21471318317052634,1.5781180575621845,0.9854496856152184,0.8691545924968965,-0.4555395260238707,-0.8892408282283243,0.9553005582377528,0.8760467925297942,1.472670675750982,-0.6039806259692295,-0.22954865536034708,-1.6394841625254342,-0.39247110606087293,0.9965705105794472,-0.46649537922819795,0.6404797952008238,-0.19050310599781134,0.32405702822156063,-1.1476913898156673,0.08520944963390106,-2.9911359709007233,-0.18689615816198485,-1.6304732437151401
token_12,1.205994516546816,0.7774073527645112,0.46667098196608103,1.52100622715938,-0.9489165208248372,1.7473631979155582,0.9321915642603847,-0.23655528721894603,1.1356201471829441,-1.1062935124116342,-0.8245141615276735,-0.6085897232397004,-0.5289777080640152,-1.0565576427602528,1.223083067095325,-0.25885440036983165,0.35250496835687956,-0.5703513664136806,-1.8206033005485172,0.2700573583914221,-1.9122549754197768,-0.06863404608546861,-1.3683150388328105,1.987275999230808,0.9113627221747217,0.10575379127148042,1.2637066776546686,-0.8463159774657358,0.543479378670093,0.1998104337187135,0.26402008133367,1.2723535001067678,0.7324921027798023,0.28872366282502326,-1.6548874362282961,-0.9600462952794637,-0.12270893359572414,0.09337237427665124,-1.1302037246739238,2.411676675578421,1.5163940552535728,0.6021183203924835,0.07203686128374476,-0.21220896990115168,-0.9519184600222356,0.07748051851886253,0.2577525401427507,-1.2417605754816243,0.33417641724489744,-0.15525904882474875
token_13,-1.907807557877391,-0.8603850107795019,-0.41360553342164424,1.8876876573401904,0.5565531245337582,-1.3354815690998914,0.486036289417637,-1.5473039889383655,1.0826910538870733,-0.4711246518178786,-0.09363618873917084,1.32579664754219,-1.28716356858425,-1.3971181851129912,-0.5835993263460049,1.0383788510193166,-1.5193460754768424,-2.832155598110569,-0.4511588584089988,0.5517407999109204,1.2002617497388293,-0.463161362085399,-0.41142660711600243,1.1539007342557472,-1.8697416996954206,-0.38852077518300926,0.19042388992505774,0.44921872128503426,-0.5098066931908826,0.03444101170584135,-2.4883273534129895,-0.6582484123338483,0.4535087125544674,-0.9822940342546795,0.058984221589597374,0.446872500802698,-0.34254920085776497,0.1704637709965709,-0.9627325652846123,-0.20661127969604665,0.6102161695892225,0.15697296096843422,-0.5865312695639355,0.224216404290793,0.714609790636618,-2.049941278577478,1.1590740649558977,-0.336254738681072,0.42548993324023027,1.197246923645228
token_14,-1.371673697230466,-0.7094410024275466,-0.2885486958757048,-0.7837535211244283,1.7349365758368085,-0.8567720938267928,-0.5555467794868666,0.20438903160297678,-1.2021495260760888,-0.39568071175626385,0.31745326125017514,-0.33286040438251124,-0.09338685889994829,-0.5293321124483709,-1.514470309180767,0.32159321133923857,1.7549330716472415,0.01840163078343813,0.22526411724754952,0.6927227551168594,-1.2693304965466992,1.7025146581296056,0.20232879642280202,1.631856899089109,-0.7330329955239894,1.8180619225578247,0.7751554940347831,0.5530400858523584,0.23402445435314795,-0.24852861807444937,1.2005316584738726,0.14035986984804696,-1.9670697035871523,-1.1171864617070024,-0.1858457521927473,0.3099989831655551,-0.05658848889989584,1.2189707897936632,-1.9511018640386248,0.1435879365051602,-1.8179792253871547,0.7597122954841684,-0.09445871444200275,0.41960997202411815,-0.8638829605897661,1.279464931657751,1.0417246640588513,0.5835443030118876,-0.12951724686344077,0.5798572852951321
token_15,-0.7068925679873489,0.8555556590207121,1.649480894323921,1.0706105599791862,-0.7296024698074095,0.3614173172731029,-1.2931415437586478,0.5723903111756757,0.45060341286253885,-1.869816339532164,-1.1617838439123638,-0.28313889674376713,-0.30085974714082625,-1.2094769354188053,0.38897872935218375,0.2514736089405121,-0.1942691319785193,-0.7557915001583629,1.0487071264165635,1.6554071130882952,-0.4835614838465371,-0.6121669171548207,0.4912076654119963,-0.35802937974698623,-0.13939720066323416,0.7396531517246714,-1.9093560875072928,1.3183023248526693,0.07268052432934134,-0.4114931445621802,-0.08923415422144892,-0.03757064497948127,-1.7312013034449254,1.494938227453236,0.041325632270618466,0.4430021304473752,0.9515497705740428,-1.0211624575603002,0.47347189903522846,-0.26764109089879357,0.8467707752164937,-2.1272274203514954,-0.099094300241269,-0.6028206557839616,0.4322629506341555,0.47004418736820214,-0.7076258948220261,-0.7121738641760436,-0.11066536855732945,-0.8966422273152082
token_16,0.8419836954521269,-0.36920720044744615,-2.9069882193216414,-0.3748220566218061,-1.0385438208439723,-1.6312758154609455,-1.2374266382225725,0.10940847183297006,1.3286408282482312,0.31318447386498,-0.6065033882157397,0.4559041951707027,-0.45909031021899177,-0.6946003691631446,-1.1543626682329844,-1.7518288067517191,-0.3899237065594453,0.15805348992013185,-0.09662367001488972,-0.4159669279473586,-0.9457460606967811,0.6082461916849685,-1.317131919946585,0.7760279138434754,-1.0022170189267248,-0.752435237353035,-1.466785190615677,-0.5014021468856367,0.9753124584779789,0.5156280884439565,0.9784221120280351,0.5221425459339358,-1.1036698285303692,-0.33078922432755736,-0.7801991291174627,1.3305749040390402,-1.1967886464263116,0.8936976893891109,0.8929538701087693,1.8296202017160872,-0.40968659262949736,0.7123221595801621,2.2816518365388427,-0.6176416769336966,-1.5350402475323597,-1.8800100339077637,0.7127120288613313,-1.8831502080585838,-0.37231905293792283,0.4373131870389607
token_17,0.18517553682991406,0.42544486418417227,0.22228985580085406,1.2788658133133932,-0.952316380738797,-0.6769951384585313,-0.772659445270824,0.8301918118626102,0.9003985883950636,0.4512253193185082,1.1834936668899279,-1.1780408673763807,1.667224111551137,1.5232386217122582,0.7356219972457467,1.78179890877106,-1.6566232076777738,-0.5244481362626519,-0.7353034606819523,0.7214793237573432,-1.0501407396021456,0.7574951493374855,1.3705361439967134,0.6952029000839993,0.2837510236615011,-0.9878733409007492,-0.8468509661253646,1.2496189052966666,0.7793490039053323,-0.03901951937754412,-0.41790954576589057,-2.025807873111377,-1.0708524186844388,1.9114190871397234,-1.2804555710024668,0.18947982122108065,1.0074439731951985,-1.2549226680022925,0.1847104747810833,0.937915537510655,0.012499321907250335,2.8684030556667683,-1.6685992588781953,1.0587285298838789,-0.17280173739646437,0.7719201548366751,0.44130715169924584,-0.7331561971099966,0.22899639245934025,-1.8579014513982872
token_18,0.6032475005713938,0.29815846599052565,0.6386601686431024,1.0581183250871502,0.3676198402097109,0.1480894197982762,-0.8810683366612923,-0.712220763649051,1.186734620177331,1.4363354057059785,-0.23811043631205406,0.04600274725327412,-0.9046143749937661,1.1727568452674448,0.6654168236917787,1.9412174364637491,-0.8783230771797389,-0.3780078990182172,0.2314459225255723,0.6464895377257707,-0.21566763754763232,-0.8729610904537004,0.8814075289235711,0.7211353625455816,-0.9162741005637249,1.3554428011054958,1.1701987091966037,0.13429649724779288,0.07959786237603639,0.5540577711159071,-0.8617030702562581,0.03003147916408217,-2.1523835446091804,0.8764556455029355,-1.5614932224418594,1.503419828428999,-0.3301200939664503,-0.2116669819311769,-0.6277339060845056,-0.2880388739220764,1.4185313451480366,-2.4878086565350794,1.2769653860881878,0.33802348110170816,-1.2070216478572156,-1.0753123930492379,1.676393027208203,-0.9455068799427312,-1.1533505105959594,1.1373145423647293
token_19,0.33855287628591424,-0.9379255765363989,0.216624975404619,-1.0257526836402773,1.1008213984226052,1.0613709648731335,0.5320061988219431,0.3616610612470166,1.7611881248673737,-0.0003136726117747121,-1.1818741254208012,0.44947391283230687,2.0860470495371137,-1.0147594931858521,-0.36146276669398575,0.41644603810145264,-0.05390484900573916,-0.9823035803773146,1.1218578562304709,2.3200407220172594,0.19613145902390733,-0.9040682897360003,-1.548960525053475,0.2579759812211809,1.1038773433162576,0.4751677464953816,-0.002403840918853844,-0.5892716517893062,-1.0921636327180897,0.8347513263248821,0.9137716213855857,-1.5457297866907331,1.5898389781806839,0.5740712208940013,1.3995946451457935,-1.342127748485115,-1.365824155415439,-0.14896930976729691,0.5027844268951942,1.7963608229269636,0.7060789138151315,-0.24268127681203333,-1.0263692076658921,1.23000057271915,-0.9647054257507148,1.6284685547723217,-0.28438464960650933,1.5905820726178503,0.6789312900592783,-0.13699548944245826
token_20,-0.5193963718261266,-0.3409078773460798,0.4283166923752375,0.07715649621771674,-0.5938114080687051,-0.16563141031763223,0.0785770297191498,-2.128734094414812,0.4581681147886987,-0.9797212247168068,-1.153332403205745,-1.6873443471107104,-1.7938924978678903,-1.3554475031122892,-0.7090209576304904,1.9532591375265682,-0.5258796758952039,0.17775010626803134,0.4004813865063287,0.13106518621584873,-0.07744346072599365,-1.1952937635992447,1.4509275482792119,1.8071966436378852,-1.6826586941226858,-1.0240285908863795,-0.2798103423770061,-0.9645377949101913,0.5059655534558652,-0.7282722024066131,2.1650560678066024,1.190548594343596,0.2125740306322149,1.0269862633197322,1.105900424357309,-0.5639474880582432,-0.8162172445419648,0.07814306296964744,0.861636124497944,0.13906039865341766,-1.5769964821909972,-0.8028244439508423,-0.07397286359437803,-0.07566560432583026,1.9725421767898081,-1.385987942398998,0.5055892418358746,1.4891131083282896,2.271449745422796,-0.40439742318396127
token_21,0.4914294527201998,0.5697603571986469,0.19548173155329082,-0.09884520123930605,0.4359753895000459,-2.5322460852196853,0.6820694900626313,0.12617790366196718,-0.22247489677826537,2.046862195719558,-0.6749340187905523,-0.4030759890650308,1.991553302204734,-0.8320613048498566,-0.5501152829365389,-0.14702542343084998,0.8407344821295493,0.2078025073533134,-1.2926253471522626,-0.5321685631271895,-0.6073544332122114,-0.07722104522304557,0.4258436586298291,0.4182057558879721,-1.7760117540484022,1.063940987560856,0.2525688459966235,1.3845320475939062,0.4441983272906719,1.1013229577357622,0.46654531145012695,1.3462257562027482,0.5222506360177785,-0.09791524644290406,2.2724347204468818,0.8890371222798921,0.5737444210044131,-1.276304416538336,-1.2883076174635377,0.2927154821418534,0.1455211977682408,-0.6141225650083162,0.14098269961206,1.5886269280435958,0.6954024745502987,-1.1410085097527383,-0.1115088271429437,-0.8049664808525608,-0.38769991640856116,-0.41361566562964275
token_22,-0.4776455826040052,-1.2551353719733949,-0.12765468151819012,-0.56060763684731,-2.929448690002268,2.052972024501663,1.088769654216672,-0.37630072492499606,0.018819049740598424,-1.1716543473175618,1.6957228778108653,1.8972886947731116,0.1566937282465246,1.0235306441853447,0.17528677893392386,-1.3367254388759306,-0.4118233689636573,0.13192796677195706,-0.4545477187434442,-0.218653277435036,-0.09139955750911445,-0.08087849786546131,0.05225849049748321,-1.060605066396601,-0.7170161491279362,-1.2845842656999693,0.9778155496862003,-2.1056469418403245,1.1535903433169254,1.3863493972628433,-0.3021805869826214,-2.6031370878272986,-0.3613105619672905,-0.06418416128881928,-1.0105982199289134,-0.5152183938082427,1.5301951988633513,0.664927162301741,-0.9245641143780999,-1.5975991695954321,-0.3270173176097711,-0.21345677935043825,0.4961991873633163,-0.535316712567659,0.5114995753618614,1.9351540400602292,0.8155010224442626,-0.048088507330772585,-0.18315047105329468,-0.35667313417987123
token_23,1.1806409124521446,-0.6273134459513029,0.04522270899998256,0.05119790188108534,-0.501784192811532,-1.3724655478841008,0.32297450361766816,-0.06100397185538355,0.5002404694365699,-0.5336003064391669,1.2208212988130478,-0.8767737812118448,1.7120402840178925,-1.7476365098282616,0.43477006455689116,0.47543068252662346,-0.7955570679408823,0.4243939378610126,1.2795186697601588,-2.2168188393540644,0.5027448074908146,-2.4932708203300775,-0.965664803523208,1.6291663649009451,-0.581782033392054,-1.1738799644089726,-0.19793772898468187,2.067906338163552,-1.8316822472060261,-1.0513099116393445,1.4974316831796264,1.8577023435377324,-0.10343122429028392,-1.2390527025266425,2.095843501809159,1.5944423917491968,0.678946987762233,-0.81240234893742,-0.049029340838036735,-0.16036008104483077,0.33085130461557777,1.451001438131336,0.8794170411374032,-1.0773760769847582,1.3764964500195378,0.3131321400131553,0.6870657958589163,1.466540859278603,-1.1115802495135512,-0.035825578706462934
token_24,-0.531454551359215,-1.5678594253654559,0.3467099776049199,2.5115565515844236,-1.8400777445057528,-0.032280611049470324,0.6405429350747734,0.12307820165618115,-0.1131280525157404,-1.2992163634458243,0.23278674294016363,-0.7567639770159263,-2.1899217049785533,1.1945922205137307,0.9583858198420424,0.0516609768510798,0.22907468820570256,1.0743180127155614,0.2243396567780826,0.9040175547613144,-0.29748220087385013,1.3119837385739466,0.3207857259326839,0.19405194360587402,-1.270061088712032,0.2869558543017087,-0.8319549174944512,-0.6382827265284942,-0.8153756283161211,-1.066234931899225,2.1247714030169615,1.3313390619884031,1.9203675021442612,-1.222895019555564,0.07125374991089249,-1.2935076252040958,-0.695694877197064,-0.9181269834165748,1.2395840064415615,-0.39622967810175985,1.0683793336940164,0.604120889588518,2.303638752104789,-1.479444223139724,1.259233239786799,1.1464408704007276,-0.9733788380270346,1.0071333364731596,0.3361449630262288,-0.22747625995340778
token_25,-0.8239354869719996,-0.7191094514491859,2.049812095785926,0.000682818957482628,0.7821300015314592,-0.7908993816675531,-0.7798529462216388,1.0819848092499422,-1.3495762115515322,-0.41521376790527154,0.03402741107223205,0.11137260184005242,-0.17909328501615626,0.3958197810959231,0.6928557558178116,0.73463754545933,-0.9858038086678267,-0.2841550979287972,1.1947628618769377,0.8946471875738723,-1.372859451481064,0.35147990035220167,-1.9782252493748103,0.04693490206036963,1.897767016745977,-0.9478927172689863,-0.8343230454915821,0.7640297815728595,-1.542801515209646,-0.6327550298850391,0.5964411375817527,-0.6342858476894031,-0.23596998721097162,0.7441857103150346,0.42154608353656126,0.2668183962954019,-0.33912227927003874,0.37006111526895535,-0.12373268009975662,0.45780560992578473,-0.49693202511797824,-0.18256897437954112,-0.9899577925520139,-0.0350076100062359,-0.8110008636288448,-1.1140464501619933,0.25866114785538813,0.21273977585766032,0.7828737349485725,-0.43112556957509907
token_26,0.4080528468367557,0.5507975722736632,0.44477380783159476,-0.8256536828021421,0.1493634822711889,0.36414029605466136,0.007178466907941942,-2.0864776583710847,0.16048962397348007,2.212531039397242,-0.3600392687569827,-0.7280770978553212,0.3733485597113982,0.3123782104665717,1.1927351654164144,-1.2578681559088878,0.7313802525749924,0.5904220612514635,-0.1421465369405461,0.33868731792169,1.0294574815983573,0.8723153800284503,-1.1430193120737286,0.8201581867554845,-0.06468860503251848,0.07287409801551539,0.0731969910016945,-0.15024298879825998,1.191707497107065,-0.08371795984921201,-1.1195461283831687,-0.39352985596972884,0.1786947168104756,1.2292147842970504,0.6030946849488336,-0.8505352787470439,2.4851899166788916,0.2647753109779796,1.2753907379990148,-0.15171443357722914,0.5333592447054494,0.8394685045184047,1.218194711754256,1.057368305378225,0.8721970000729778,-0.3150867311941086,-0.5717460419560614,0.33260751032419755,0.9331280723410693,-0.22272070077660705
token_27,1.0651719657143865,1.4526167454861794,-0.9163209190734197,-0.8369207037962799,-0.14037505890533644,0.3076126681891964,-0.524567013767051,1.3522026788671444,0.4240668615184512,0.03944704824073949,-1.4359095238685275,-1.3158158164275071,0.2810092502818063,-2.132595626154836,1.0126374096440718,-0.1581538443723203,3.2430929695947333,2.3079162506161106,-0.18144906924751675,-0.10633700253131496,0.9955815140020298,1.7031726099180378,-1.6380290574360168,-1.7863754653546866,-0.6220348055543814,0.5827375831738644,0.4968735905075971,1.0697714549838502,-1.1996975283653082,-2.3161438629688766,0.8580141953021454,-0.8281962729652346,-2.018487864388638,0.14506374595938162,0.7931756882186773,-0.12205713212127726,-0.45784838618248924,-0.15936223214590656,-0.37058276240078286,-1.3480471119401671,-0.7146806769904318,0.5212799050138145,0.3216785413765001,0.16805980596682024,-0.9951484818533795,-0.18150316213566714,-2.1770650464428547,0.17847666388538974,1.4288577078135674,-1.4741321320421057
token_28,-0.5859276733177553,0.32910677871012955,1.2528426344274837,-0.4482246163001494,-0.6922503292658964,-1.9689231424160831,0.10343812930810638,2.042076040143744,0.2773584619646759,-0.022278979183713316,0.32208231076698546,-0.01109200394860206,-0.8130143722601298,0.8232799156777053,0.2257615231117544,0.017613251933657315,-0.97536602727825,1.3035079319347591,0.6647027453331099,-0.552920837367302,1.0018248536819372,-0.49757083838520716,-0.782003492511037,-0.7597031174802871,-1.7710685530880912,0.47154238041820573,-1.8311448783383502,-1.2284438312657626,-2.0755880090785332,-0.08606969279089306,-0.15032046027187207,-0.32669621318636405,-1.0425776946705763,-1.17223375343664,0.46436986354657417,-0.5505519317084877,0.31635832153614474,-0.8852486861242225,0.18106274277108234,1.3032780373160637,0.5861658003927833,-0.4124138182164804,0.25719897035592737,-0.24066517453021302,0.007880184694728152,-0.3256110521485036,-0.1643352058853912,0.21209335307417523,-0.9933586995819507,-1.0158788269899783
token_29,-1.388542553831211,-1.60027110450371,-1.2172826922204794,0.15946250680412918,-0.8927875154918841,0.5136144642310962,0.03471374875256186,-1.9685042134380537,0.6549755842216898,0.8107986455917099,-0.9938626748348534,0.4201915428949916,-0.856498237409199,0.0976703767483354,-1.2644984069549656,-1.7931064525345768,-0.3828171896129687,-0.12372894627483615,-0.39767969361460404,-1.1840305582225594,-0.3998990621311371,0.269294752580734,-0.04489303012253698,0.1825010305992134,-0.6701152004542329,1.1717179147161596,-1.1761733365547806,0.4875602970867186,1.1818910929599615,0.4809080927488954,-0.20252422706483003,-0.5282970466629792,1.036087651046256,-1.422974925261673,-0.9701242603796436,-0.3975577654917214,1.2376537575119981,0.37976763604089603,-0.9680457585102453,-0.31030770538490365,-0.6143231440962944,-0.7097889922335351,0.9788895585567792,-1.3717431292635056,1.6087808557343735,0.8282296901846228,1.090861670603698,-0.4629395120252583,-0.14994071907910936,-1.433151814524712
token_30,-0.524662407066803,0.4936548476431509,1.2960630617813962,-1.1071568168024517,-0.36550593698526584,-0.15129922023252232,-1.3957892021924851,0.5913492417584003,-0.7239903317426091,-0.19539035117702397,-0.4519493719118777,-0.7893385057196743,-0.0070449854805546995,-0.21560957856802238,-0.37185788227866556,-0.7284616216803428,0.31952467078295543,1.653617268492285,0.13988723283912738,0.996118214911129,-1.3902219251534627,0.15776143929376948,-1.0973683189710666,-1.4769249275319014,-0.7393714074590363,1.1918993344135729,0.9500158286696456,0.24300472205439969,-1.5327005598899308,-0.1962806513879368,0.30170000890173554,0.1755362295785979,-1.8437935834807457,-0.8903178480198718,-0.06407776414871663,0.5362909095171899,-2.1961278210999464,-0.16212397547985843,0.14304876987895235,0.8496119885162131,0.6928575842374367,0.5825713188088052,-0.7999405067019342,-1.9080021371233076,-0.39305275706140097,1.00163182520856,1.3934545275244314,0.7105491022977853,0.42934082280173436,0.3796396483859655
token_31,-0.5561187467607805,-0.13006029355362003,1.669069525826331,-0.9425580057918763,1.6147787907098514,-0.3220281544920584,1.3254321090950785,-1.4068150094975382,0.5859042011646491,-0.736770135947622,-1.4152671919241875,0.21853404241094568,1.0094717885959688,-0.8449414385934964,-1.4990159604584012,-0.09184476433495513,-0.08743532877718108,0.5483196275544987,0.9495945713644882,-0.059415181272494094,1.855503314794263,0.22423474453529177,-0.3464265060068996,-1.611567359102828,-0.26265952031616774,-0.33638694541113623,0.9603047962814704,0.46248362406685406,-1.1793691216326172,0.1722543864110375,0.6715311717290534,1.5280313593878327,0.8875039674140593,0.7608466543114778,0.06008599461516361,0.3883120054234496,1.2495049007061587,-1.3327773974796497,-0.3494393272169559,-0.7725687487562407,0.3791531187261241,1.2302221756507876,-0.5969742867210739,-2.390304367469438,-0.41222074502447015,0.9134737320174066,0.5376299029498797,0.4281862478105761,-0.27999330187447974,-1.2790307362197864
token_32,0.5152943216244674,-0.8342818100346248,2.184096733380456,0.570507208354516,-0.5806483025539511,-0.6113852473886282,-0.09294420661358828,-0.23950192202174977,1.1168337755299542,0.18641616974404632,-0.7316317389085281,1.8904406851557827,0.04930833152022263,0.7688396759688968,-0.6082265074447593,0.3631156277445234,0.3111099911431952,-1.889649292096153,2.01527511046064,1.2906444609225471,-0.39719531614598763,-1.1022697404558555,0.34756161380355205,0.08669769941439659,0.3556689485632294,0.19157739619408962,0.5062409893059261,1.4473056993918065,0.5681032051286461,-1.0496554989099411,1.362562852712452,1.6406145634882874,3.152056734512085,-1.123494033239598,0.242882013150275,-2.0820987031889873,0.5531491563792091,-0.5482002981667726,1.9234457948249533,-0.7746149700185819,-1.6891830379672617,-0.47126374070251964,-1.9754877712171375,0.7510994545073101,-2.0650830462563206,0.02845758118315888,-2.077811819856197,-0.3202978045366419,1.643378155804534,0.36064789143579495
token_33,-0.863493604964934,-0.031203488939083975,0.018016872044446585,0.47263034584340563,-1.3668583632808264,0.5925672738473307,-2.704391631602775,-0.6298845523638104,-0.48827384245154465,0.6333268260712385,0.02263085267686914,-1.4055630538562867,-0.9849931258170151,0.1986800095474069,-0.07906734186455629,-0.5791241096357465,-0.48083378951197936,0.696167997159289,-0.5176925728692147,-0.08809124402907328,2.169936588080543,-1.423682636883923,-1.8518427315746586,0.7835896647986067,-0.6786430612941032,-0.31823752774262026,-0.7811563781311142,-0.2598001407675125,1.5985381120963413,0.8021284586181193,0.8622235118869771,-1.4162270557926455,-1.1511537365528692,-2.839078659485427,-0.809380821082754,0.9567031863856584,0.5169465157483709,-0.2215132629521239,-0.02230028371805305,-0.6888855425754056,0.20475888240178416,0.7658782794806148,-1.6158867874104728,0.29964768783734813,0.9324348709546673,-0.4151002889633696,0.7007006121205837,2.814654444472553,-0.10434279298689192,0.3933070500053236
token_34,-0.7380570836613916,0.1812511626020504,0.46027162498230384,0.19484234027013805,-1.0196953197088567,0.2063617713254507,1.4621959387176369,0.4486357645145273,0.961987189071841,-0.23701197001262772,0.7499002394237105,0.27926783821652595,-0.950910729687232,0.31852100479887446,-0.9916966634403105,-0.6328802748847919,0.18932830729237413,0.29724427338012405,-1.189232465077129,1.0539857711828762,0.5720062783004729,-0.7047284356108838,-1.5375847964491753,-0.1449045790814313,-0.44594371386116016,0.11314045705302281,-0.3631166611555665,-2.00745686074501,-0.3883469383011584,-0.30561911106831297,0.6336610247740587,-0.6981996746110497,1.6786746733725662,-1.911640550651757,1.3111674978026244,-0.2243189708781048,0.8595848723435562,0.0798014840587331,1.1395555360254692,-0.38736196455281124,-1.0986204251778122,1.4205042872710631,-0.11348064588214118,0.2215584736242106,1.2347519140447951,-1.031955242094435,0.5954908976392573,-0.5898947564628909,-0.13216935564437185,0.07227896538428889
token_35,-1.500221861446936,-0.7788370428204348,1.3510728924131392,0.8861911885847956,-0.06263957732723487,0.24312345851289308,-0.29424250563645765,1.356583385827982,-0.20035257779416388,0.23184209213484805,1.146030144142065,-0.7773714848459066,1.558789184496894,-1.5304614097433769,1.6296421311127987,-0.3726755839519746,-0.24269874782528175,-1.890010171182943,-0.4547947173776929,-1.0398065310268843,-0.6076463453734726,-0.1373109657888796,0.9577916144729056,0.20760335140062577,0.30767665340111383,-1.0955193888455623,-0.8807540896027302,1.798725018351312,-0.7352010347632466,1.6562082520572956,-0.2430611988808665,0.0022879361435040493,1.0703651602299298,1.2718924219386565,-0.1108125602790875,-0.3882430535215389,-0.05592044852221312,0.3379575282321183,0.8913036868697555,0.004229858994151577,0.6188862980231536,1.638359732270941,0.38130961226478466,0.3116528560047783,-1.5189108250900678,-2.6307301368290634,0.38837572923016833,-0.09482423128087224,-0.514782674914742,0.24353020418634463
token_36,-0.06040372919690829,1.1277802506338985,0.0861108682589779,-0.7469232850701676,0.990166238959289,-0.21713107494620248,0.5265366836723071,-0.47741070619280046,-0.6498268854974364,0.08416823018569615,0.01282864354368512,0.479827035366833,-0.26864575330974255,-1.8363597837703973,-0.43277388358838864,0.7938184671438157,-0.29737607924310644,-0.24638340251454802,0.9863765059059371,-0.7119732272589228,-1.5428032182428997,-0.16063111952549436,-0.484173951248737,-0.966246319753254,-0.17537845589869072,0.49150564724678364,-0.009288561567815747,0.30698107268623775,1.813407698515423,-0.3428788615575641,0.2783486346446696,-0.5092133625991345,-0.8463597198869729,-0.5849076534177698,-0.47875857152168855,0.35947579754712555,2.3490757867007575,-0.7160434362758403,-0.4166253056154625,-0.06312301311124825,0.3957988487097471,0.26355081195478497,1.2840957939481172,-2.4263920705352082,-2.3869298701956727,-0.4958781720101493,1.0973001875437087,-1.5656480316055963,-3.007632339693757,0.5711794062192087
token_37,0.24365722370271442,-1.0902084067994298,-0.9855396007209299,-0.9697437196346744,0.11053531747394013,-0.626315276183007,0.49406391897551966,-2.854626662904391,-0.8568518651277993,-1.1260539609110503,-0.2563406783724922,-0.5380477584901385,0.7978437798957666,-1.8593367716600575,0.045491476330752,0.5583364232117055,1.8566474365619547,-0.4817659710934752,0.32445860435251705,-1.803862792562365,-2.391956204313024,0.8447743757816999,-0.005560293648070566,1.1785126897984228,-1.3734028889697492,0.5199021395287525,1.8688178405438531,0.4197056083572659,0.27658150559104877,0.008556080824349832,-1.5708814571259122,1.355572935710348,-0.6108576398050658,0.5044832563830169,-1.5630343065712535,-1.1794596645077804,1.4350873992222355,-0.34730228895784293,1.4532754760425446,-0.07823065905851781,-1.8418977729578574,0.8920675997317206,-0.5898923177556078,0.6986888135170435,0.025210867540082116,-1.5431182279428703,0.16429476537056906,2.196223142152799,0.4929864585144592,-0.05751775300546313
token_38,1.0753434019568977,0.2106684652031108,0.20953423026279433,-1.0916251721591026,0.23384802578959837,1.0354434164169448,-0.8360621521000247,1.4244958212469476,-0.09170602414512598,-0.8877695115385407,0.9976320769202445,-0.2867942357382693,0.7595148874861078,-0.29175863225853715,-0.059826143529903696,0.4935602043342916,0.2908970575900059,-1.9955317804517385,-1.1212437400943918,0.9294099847908155,-0.13213658890154725,-0.5237313027714218,-1.3585740152574743,-1.0797363212758484,-2.0217986399619474,-0.10128071870153288,-0.5984375805810469,-0.9665878909853152,-0.0681234251679531,0.3639706308527381,2.0931979322099448,-1.5118834195632136,1.159381043300522,0.973101561015072,-0.7790927393767005,0.20323595458603103,-0.45763324933761523,0.18568858041873892,1.5091310134045506,0.605606232631313,0.508608373233442,-0.4303093199546424,-1.4840566649243352,-0.2084682105404079,1.2066081548639151,-1.5271678565896476,-1.055089368176695,0.12626773623406817,-0.9846547848472624,-0.7925234471152126
token_39,-0.4235985817281771,-1.3656174041901494,-0.9741218462163683,0.7034279167873088,-1.307369782230964,-1.5978721344948377,-0.6300249795338944,0.7319555025098458,-0.19692180799688955,-0.46458107811561833,0.04435879751560705,-1.745707432859652,0.49470565377503245,0.38343503140364416,-0.40930847409572124,1.0059245117964166,-1.1274960989530387,1.127908993253569,0.15449366559525113,-0.3365525898781734,-0.01987363536831157,-0.10726476581094174,1.220282896417717,-1.0766791274710135,-0.7625192391465982,1.0363028920724797,-0.5955349351838592,0.9005330773315916,1.6994359830087096,-0.40179502694163366,0.6813623265753054,-1.1536922813398585,0.7547332980678092,0.1994239859867671,0.4730382821602152,-0.645572072035395,-1.6610834155671725,0.5032520647495048,-2.0634031524794545,-0.3173504922425348,0.9411818664199697,0.19189773587303607,1.9483426447898131,1.0251091525817735,-0.6538983883255765,0.02731337985143867,-0.04737070254443595,-1.5821767633461272,-0.9403989164843533,-0.5607609069798603
token_40,-2.0362205028559366,0.047493468251642953,-0.24907184465304072,-1.6728939013115742,0.4042128652773321,0.7158727446909595,0.2270344788648889,-0.3240681752089702,0.5914421517518549,0.6802203604766911,0.3074035697196884,-0.8246122504347609,0.2766007655111807,1.195480650825479,-0.5966290586117302,2.0979393391324312,-0.5256309339853844,0.032407013340136216,-0.6724855960063362,0.22327083592026087,-1.7422216926352752,-0.5460417988167212,-1.0921212003485672,0.1353383478922909,0.9944473755089074,0.6460061871145515,-2.3716593608588923,2.0420696529278803,0.2952799406208684,-0.7764991404930003,0.15712791899094083,0.17618982250269238,-0.6668487169515637,0.1979166673420755,-0.6074722876203072,-0.40436199269002276,-0.6862791357550845,-1.4326712897396527,0.1458364702153839,0.5852994365163381,0.5148835960763722,0.8199252526352343,0.3243402100148682,-0.5327254982169035,0.8396638644311888,-1.357517539841935,-0.9006713825124801,-0.9642000714232447,1.0800560591393102,0.9427885141400756
token_41,0.48730523704499484,1.0719298652117972,-0.8792827824119881,0.3485951198609804,-0.12517442838316423,0.8468821038849139,-0.11522423255219759,-0.3849428884100812,0.54090851856099,0.8761691671912328,-0.6683451948468017,-0.0610756713523761,-1.0584406336416528,-2.4980610174929394,0.200459631413729,0.6089053562546319,0.2620668090867255,-1.9495617177543672,-0.35084943007647457,-2.2183477600510813,1.3697011076541847,-1.086054582118086,1.2554036094598964,0.9458696436841456,-0.9005903525360617,-1.132784951267745,0.35037021638633825,-0.844324037183071,0.10248464215820753,-0.48282759080691834,-1.7811584144656334,-2.230468019124459,0.22668424849459717,-0.5615577463306254,-0.5530898169141323,0.6958638390937854,1.1734422766324448,-0.2725447213618092,-0.3405987069098615,0.5001430331138838,-1.3569355696995753,0.223153054747697,0.551885971822154,0.6802302084176292,-1.936752702502465,-0.7613552698089406,-0.8782632528234666,0.09988695440921298,0.48074457976798396,1.4967104074459814
token_42,-0.4949654803680731,-0.49757249830921385,1.149672018878747,0.2965769385303051,1.2676515111879738,0.2887280030098363,-1.1571166187132709,-1.3331283547778066,-1.551512249058929,0.6620518347584732,1.188596823087008,1.849362141386381,0.8431053323232401,1.1628385775349859,-0.5800163326536847,-1.1564158167438567,0.8500793324175533,0.41768075223940065,0.10744437434089255,0.3873714806329899,0.3231854824582059,1.2838168598535613,1.2949855848169558,0.544220352340347,0.8458028725629282,0.5140625524247758,-0.4611697320346189,0.7565646749131401,-1.3944950688592617,1.0538915522958832,-1.194522939766035,0.28580328679473294,-0.8451539584261589,0.5533889830744267,-0.03392522592790888,-1.5947559581633324,0.42069963101847885,-0.5779207768327106,0.8811467208133691,0.0013256887344072295,0.39542098538803816,-0.9575689550152119,-0.5893322314273619,-0.4586386361010845,0.8567024802425557,1.6773770878054892,-0.8051717517428763,1.0768481446576803,-2.169677417725702,-1.1941894010922893
token_43,-0.9587784561867748,-1.3525086894407223,-1.58358838978758,0.41299891213779755,-0.21406769772786138,0.3794053976051097,0.690472686121513,0.26561699317253346,0.6577631761503737,-0.06953228624226938,-1.1869933883057446,1.0578141808207961,-0.589112132781127,-0.9355962987624259,-0.17791787580439816,-0.912810919296513,-0.4174303819894322,0.3440539215634665,0.3483417392461269,-0.8978300664256293,-0.4877053729487446,1.0743330047702437,0.4964001177339411,2.0750650393485417,1.1801281737415277,1.144293068559939,-1.387868550455802,0.7638603516334226,-0.05310680169691065,-0.5509818035382495,0.1680153405325285,0.9452115346114836,0.5008315910042116,-0.87847380134206,0.7424589135926203,-0.6375875420759639,0.21668311896428621,-0.3033500674771342,-0.2188662517356257,0.7662429750405095,-1.040193719815898,1.945195074276933,-1.8210860692944963,-0.5976676832548571,0.370211889941741,0.5843141664353099,-0.10047572057170515,-0.057390703001542406,0.41055008532761655,-0.2310694774576803
token_44,1.3931812579349059,0.8393491142316022,0.8728243510056346,-0.966156723370417,-0.07938842440570287,-0.3004659487207037,-1.0056013756894657,0.36016418394576694,-0.5376457577798165,0.655403829850237,-1.0701915628943317,1.719040612841821,-0.8963326585920618,0.21930233720043607,0.7918593103880676,-0.5706404302001128,0.8524686434329506,-1.2291835978004162,1.4521176991825604,0.014149264965758293,-0.5964114079688796,-0.2991817724274345,0.8089192693927194,-0.5844552918504382,-0.7493576894227776,-0.22153659758373817,-1.176962112769968,1.8205439079418155,-0.5663945912147232,0.8316167861804036,0.2094700836477726,-0.9845340504819681,-0.0059547092127293835,0.784002779310748,-0.18826133508630655,1.193112945851028,1.0215153927818639,0.9189148546583293,-0.45965677227299695,-1.079842447781487,-0.6135876053627944,0.19624094066672046,0.5457867135323555,-2.1715714047604475,-0.00811320161175029,0.15808922532318442,-0.2775442563155516,1.2912738390158789,0.4217800742508709,1.310191908080897
token_45,-0.21596052035023222,0.9374774925069249,1.6350663945275195,1.311693449272661,-1.092141593428733,-0.253676077542381,-0.34516470544979644,0.4892545350763276,0.6863535550145331,-0.8388926740257363,0.06783851391693768,-2.0199273321561364,1.44194500580189,-0.5123742406766936,0.05586393984449697,-0.30964971398806124,1.146027575013415,-2.837506441397379,-0.016610342325908987,-0.10581875749769788,-0.4536363875916828,1.7262265456356325,-0.8873294588557712,0.7717961772356612,0.35625278870608357,1.261519252535516,-0.6671890847775054,-0.732968899123759,1.0960699074773985,0.4253213083301104,-1.5449373466767586,-0.5393050144632704,0.386382653848061,0.8377642215465891,-0.6792306531929551,-2.914255989816941,0.5232231857370332,-1.2203206899439758,-2.0173387981224113,-2.832325924984141,0.8139808601977412,0.12861745040496653,-0.22565638071225164,1.3890243629627617,0.6373246830230725,1.6163000427219165,-1.3927354721669964,-0.034550623953963515,-1.6167133749480143,-0.22938233185546722
token_46,-0.24861585376667736,0.6266136372630708,0.04556388114189831,0.6234071382799156,0.7034401331388942,2.154928677383142,-0.3152966552861244,-0.941022700666379,0.24608361531640882,-0.8022800271395435,1.481960768436536,-0.28321803894523256,-0.5655763678739903,-0.4713157211511179,0.718417423471641,-0.15774698323148525,-0.6416668201303823,1.665351917623531,-0.8561698406617501,0.03556607403299353,0.6523061516102304,-1.6313351104170732,0.4802605014059249,-1.0551076754804494,0.8227827808340025,-0.9626510119189763,0.6927690318488605,1.1058330662947127,0.8614365256328049,0.2513166482381024,-0.23130094292969944,-0.5764195763348439,1.471034690817104,-0.6994952201676432,-1.0370660735699961,0.66536893503283,-0.7961368031864954,-0.9500634974661272,-1.443604262169765,-0.4829098394605177,-0.0827150238964932,0.24309172766069878,0.9513062442994834,0.5268979236657937,-0.1908722195531798,-0.19819567637971988,0.5101574689151834,1.2725701629285695,0.1263141994832002,-0.46913085421040895
token_47,-0.9928660010855455,-1.4452052644122255,0.6662696720435232,0.5779785236395572,0.5773635251066616,-0.1286594463520559,1.4069347458917507,-0.4841184945848177,0.9552692372072055,-0.038742894989543024,-0.6083507646793376,0.5925303073177614,0.4096361186839937,0.3569727592669261,0.08127842205619876,-0.037893081716830875,2.3883719928704386,1.184256645196173,0.7228268949855121,0.11179915820338826,1.0071572005966691,0.5179947763914519,0.02620475277403566,-0.30356432526591504,-0.0809173376626882,-3.1704257358780557,0.21060083929764178,-0.4884760801103597,1.592669998282884,0.01934407081175429,-1.1889634195349619,-0.0498801541281177,-1.0461210850625042,0.4734074157124664,0.29094736433948537,0.9578396311082676,-0.7908817916945654,0.0340080962281468,-1.3650217954266353,0.7014947819247145,0.518871180440122,0.49580502102757085,0.00161903135694112,0.4147728907887909,1.6043391083085963,-0.28509425704201397,0.1386451837100845,-1.0861262991814098,-0.8682609615983323,0.09781329309330739
token_48,1.1039335467019071,-0.25628082425157245,-0.23591652931212392,-0.4068852445043747,-0.5347566708443231,0.29497145570882155,-1.4972576451786446,1.2809395766667275,-0.6654222981294605,0.7219034854381414,-1.2699985973938759,0.6688401305462182,0.6719446078144975,0.3842020720058965,-0.9944285217997922,0.249548189598077,-1.183056184734389,-0.25276325509618536,1.029413100955326,0.796701927070742,0.015182942540433121,-0.9748065759228419,0.6455877121741934,0.019381237698025213,-2.3203155982304233,0.7826298263165181,-0.024232833869692147,1.2024512479830722,-1.0952705188428047,-3.1767038131960006,0.2790838583451852,0.29156367668197275,-1.690671627606452,-0.9784995458666064,2.7552177437199017,-0.30561061415380336,0.7309589763762161,-0.6506598273683837,-2.0903028988531567,-0.1702582467959055,-0.2656045602861052,-0.39987823866837147,-0.11464083550639245,0.26426827164563654,-0.15011695125380659,-1.2640061679473638,0.4861847915619389,-1.9493717553224232,-2.0503574572842003,0.7391804947015679
token_49,0.5070202721353568,-0.05739536507403601,-1.395448504755072,-0.7079109406740753,-0.262746747686504,-1.5958939685741134,-0.7390286580232329,0.6523303381766798,1.4273053642892164,-0.4194347526585506,0.7564883543160984,-1.9140600705874673,0.6594512411136115,-0.803948414727481,0.30734561670797006,-0.24775241823970925,1.3204140097838342,-0.8744356483399182,0.6276062975618311,-0.2795074632965335,-0.15830547800966377,-0.18385389315920966,-0.8456731044941129,-0.014098965906671578,-0.0626482221218215,0.2412402484067293,0.08450514569286258,0.7979945496122363,0.9235086160473687,-1.0506233218278012,0.868772500590771,-1.1863364271098544,0.587855888137735,0.6197387847028687,-1.911316891662504,0.09297924652940966,-0.4684961133603157,-0.758765257935375,1.3508523306990055,-0.6536791406374189,-0.8063769291180498,0.07569494000509344,0.6855897462984164,-0.1416485860101269,1.1663705456692521,0.5309756619640905,-2.1782113197314303,-0.5294669635070083,-0.561842099351699,0.4793609534294223
token_50,-2.624817056374112,2.549009708717722,0.53102609489421,0.1488768039176911,1.1815677164191463,2.343654052812625,0.8707466445884032,0.94881309647162,0.13069002446438233,-0.14152575336694828,-0.47579544400490115,-0.8261119917145421,-0.6870140996994973,-1.3505559643429832,-0.07587145068502332,-1.6846675772263868,0.1909165241437107,-0.03633060804234174,0.14693529838668778,-0.5221315700199924,3.0768603701805035,1.360115900180313,-1.2445425000847228,0.23286808742689824,-0.6080061429373236,-1.014479726707414,-1.340072071123935,0.43221669075925395,-0.6813802350695739,0.9678260240252041,0.993782214530439,1.3739143852114495,-0.8523867660741036,0.4753656106920102,0.6324542166423008,-0.47417817510396487,-0.7717719573928751,1.6095206657759729,0.22749587573205374,0.635967750711738,-0.8220760118279274,-1.2192844665221938,-0.5694497744921104,-0.12402138738999703,-1.0642200068173489,-0.009844808650383004,-1.6885051880685,-1.1200474224698722,0.6709112482768751,0.6037905202778941
token_51,-0.3918767653868664,-1.017764309076953,-1.027403551526011,-0.3732682459413141,0.6445184916452914,0.9282456913443246,-0.49653173548196905,-1.1534924259847839,0.2678436378663333,-0.8235349706258495,-0.5182526388612024,1.3252760904370375,0.827115428565768,0.1579743122514517,-1.2719190011127228,0.2113965674706589,1.0626572907875265,-0.3756336657655356,1.3511140899867151,1.292745289518207,1.6637328321434735,0.30524312653135294,0.5873916998060122,1.41418728833109,0.4473939370689756,-0.5012341077902127,-0.44854283652786137,0.23855495377373917,-1.2905614219462187,-0.14325891536419263,1.0965471182302537,-2.191253851165281,1.534482101794515,1.1223742187031596,-0.4597646158304763,0.5433908278718096,0.003147726906326633,1.229990368438683,0.9826831427699412,-1.4000707231830092,0.5872624134641767,-0.20562785364324765,0.0828325705180999,-0.7281719009698155,1.7481370691208353,1.040061819902576,-0.7397711639729673,-1.3346106069102326,-0.3856726309778482,0.43450264609130573
token_52,0.240205843946223,1.2531328247682434,0.7899197221808523,0.9695690257529068,0.32685540061043733,-1.3892987302109903,-0.19569853114690144,1.0600897399086655,-0.05152292852464606,0.5030903686237468,-0.3187483152461331,-1.029811848541845,-0.12334406404611045,0.3090474430326539,-0.6556877194614437,-0.2357112448566685,-0.9394632419859826,1.119244917564096,-0.294455757588034,1.452755545126183,1.5287478505409084,-0.08104596472174376,-1.0084487325473497,-2.0858978777333372,-1.4720370730267915,-1.37383482489866,1.3784696274615047,0.1158245872269461,0.3896045240919878,-2.220421008935126,-1.1979664292172616,0.887079776446287,0.2867741123825862,-0.14720527868559727,0.5648423586001226,1.635797806135815,-0.22104246353705057,0.06936980265806943,0.19259691873130513,2.3921096352739926,-2.0993562644190256,0.683223014788808,-0.11480224875906367,0.5667717261841796,-0.6573725539947244,-0.048965030858450255,0.7114105794654951,3.112910201043841,0.8080361894020714,-0.8480655980305086
token_53,-0.42375968202270325,-0.45341410838385404,-1.795643172630015,-0.3300901917014373,0.732829081821745,-1.2742321190767951,1.0484826510505925,0.4877748210843382,-0.7342333219710379,-0.14152963733784743,1.598321807641033,0.7335478135058658,0.008783654898147817,-0.2376833169609843,0.07660907045165961,-0.5117635579423034,-2.1047495057190146,2.042177910534731,0.15532499919940146,0.3981472651225371,-0.05790774987690872,-0.735116800724588,-0.18592448094877073,-1.5993947621943112,2.2770864980533045,-1.234511998422396,-1.0319662838471795,-0.4402592043864004,1.2880757248523775,0.014508999262654136,-1.2361357960304624,1.2543383607573395,0.7310006267854814,0.5384349572164524,0.7157342411708404,2.394361900582451,2.185094895036112,-0.6867153430032953,1.6238849928111523,0.3831681897589003,0.4990958161377494,-1.6922708316433286,-0.17038576538819597,-0.8128235903365649,0.8280588148933092,1.071080500402805,-2.0744863510163114,-0.02203486400427045,1.1218615047942522,-0.18667896231344497
token_54,0.7290636450023644,0.35116546762708406,0.34166023195262635,-0.27131497806829746,-1.2165808041357096,-1.1215301474250274,0.7093525144553172,0.019458255518883118,-0.13851224460722475,-0.42389004232235256,-0.30518884548075176,1.0469117944881394,-0.33524408186802673,-1.3410647133015687,0.7436517755401733,-0.20487666386471723,0.03139586553277644,1.6075783063995104,-0.020560557350507186,0.28918367311872534,-1.1789234912983253,-0.21966945235096014,0.6095260452086012,-1.5553737338412423,0.20084509311570958,0.1007910726448063,0.04128745558743938,1.0371588986582432,0.3344385148485215,1.478071898356444,-0.9935895155940362,0.13592456721834797,0.08446678638994742,-1.06925449375508,0.9562950020913461,2.324673305852818,-0.017006074483830996,0.5050210882737669,0.08451847581532725,-0.7135846699071758,-1.8207602778020162,-0.7057734830953651,-1.3919583809517313,1.7041020780591178,-0.11510969392323915,-0.3459193290471707,0.8891538247878059,-1.121751102855888,-0.7668640380045524,0.06807226924862103
token_55,1.0287689914234805,0.5016850451687882,0.2483251425158822,0.07811773523601635,0.40023585552677515,0.20165290512925463,-1.0299722747769358,0.04607922163315134,-1.0736886589177526,0.08108254290082371,-0.4806479414882414,2.5393816227828614,-0.03989438375171192,-1.4042395662615887,-0.13418021067692457,0.5193587456378881,1.6733639461525236,-0.5894523999387185,-1.58242797402364,0.8168370114309812,-1.3805987058996512,-0.43615544150748503,-0.25762048551099404,-0.06963345330010817,0.6891644570743356,-0.6836342822863877,-0.2737292521667607,-0.014270352949388505,0.14959795751878804,0.09782717470792267,0.4360057752225798,0.8438395096417373,0.392634115650968,0.45358552350921844,-1.5822231667464777,0.05022769916568044,0.4795075480016086,0.7289411945704503,-0.6923507742337942,-0.659039274888645,-0.5741006752835983,0.5364138998913434,1.0338810549242086,-0.4074601072916016,0.9079623136270489,0.12347980916459421,-0.12428577716243629,-0.21138422981796898,0.7466113646021572,0.3255778167870701
